%YAML:1.0
---
opencv_ml_rtrees:
   format: 3
   is_classifier: 1
   var_all: 15
   var_count: 14
   ord_var_count: 14
   cat_var_count: 1
   training_params:
      use_surrogates: 0
      max_categories: 10
      regression_accuracy: 0.
      max_depth: 8
      min_sample_count: 20
      cross_validation_folds: 0
      priors: !!opencv-matrix
         rows: 2
         cols: 1
         dt: f
         data: [ 1., 1. ]
      nactive_vars: 5
   global_var_idx: 1
   var_idx: [ 0, 1, 2, 3, 4, 5, 6, 7, 8, 9, 10, 11, 12, 13 ]
   var_type: [ 0, 0, 0, 0, 0, 0, 0, 0, 0, 0, 0, 0, 0, 0, 1 ]
   cat_ofs: [ 0, 0, 0, 0, 0, 0, 0, 0, 0, 0, 0, 0, 0, 0, 0, 0, 0, 0, 0, 0,
       0, 0, 0, 0, 0, 0, 0, 0 ]
   class_labels: [ 0, 1 ]
   missing_subst: [ 0., 0., 0., 0., 0., 0., 0., 0., 0., 0., 0., 0., 0.,
       0., 0. ]
   oob_error: 0.
   ntrees: 100
   trees:
      -
         nodes:
            -
               depth: 0
               value: 0.
               norm_class_idx: 0
               splits:
                  - { var:4, quality:9.9515781250000000e+04,
                      le:1.2679672241210938e-01 }
            -
               depth: 1
               value: 1.
               norm_class_idx: 1
               splits:
                  - { var:0, quality:3.5126421875000000e+04,
                      le:3.2280907034873962e-02 }
            -
               depth: 2
               value: 1.
               norm_class_idx: 1
               splits:
                  - { var:8, quality:2.2348501953125000e+04,
                      le:2.2459918260574341e-01 }
            -
               depth: 3
               value: 1.
               norm_class_idx: 1
               splits:
                  - { var:8, quality:2.2347996093750000e+04,
                      le:8.7282776832580566e-02 }
            -
               depth: 4
               value: 1.
               norm_class_idx: 1
               splits:
                  - { var:13, quality:1.7232732421875000e+04,
                      le:2.1602280139923096e+00 }
            -
               depth: 5
               value: 1.
               norm_class_idx: 1
               splits:
                  - { var:9, quality:1.7224339843750000e+04,
                      le:2.6483097076416016e+00 }
            -
               depth: 6
               value: 1.
               norm_class_idx: 1
               splits:
                  - { var:4, quality:1.6997091796875000e+04,
                      le:6.0002781450748444e-02 }
            -
               depth: 7
               value: 1.
               norm_class_idx: 1
               splits:
                  - { var:8, quality:2.8337819824218750e+03,
                      le:6.6215500235557556e-02 }
            -
               depth: 8
               value: 1.
               norm_class_idx: 1
            -
               depth: 8
               value: 1.
               norm_class_idx: 1
            -
               depth: 7
               value: 1.
               norm_class_idx: 1
               splits:
                  - { var:8, quality:1.4164051757812500e+04,
                      le:8.4101118147373199e-02 }
            -
               depth: 8
               value: 1.
               norm_class_idx: 1
            -
               depth: 8
               value: 1.
               norm_class_idx: 1
            -
               depth: 6
               value: 1.
               norm_class_idx: 1
               splits:
                  - { var:4, quality:2.3113502502441406e+02,
                      le:6.1354212462902069e-02 }
            -
               depth: 7
               value: 0.
               norm_class_idx: 0
            -
               depth: 7
               value: 1.
               norm_class_idx: 1
               splits:
                  - { var:9, quality:2.3500854492187500e+02,
                      le:2.6485018730163574e+00 }
            -
               depth: 8
               value: 0.
               norm_class_idx: 0
            -
               depth: 8
               value: 1.
               norm_class_idx: 1
            -
               depth: 5
               value: 1.
               norm_class_idx: 1
            -
               depth: 4
               value: 1.
               norm_class_idx: 1
               splits:
                  - { var:3, quality:5.1197089843750000e+03,
                      le:4.9460735172033310e-02 }
            -
               depth: 5
               value: 1.
               norm_class_idx: 1
               splits:
                  - { var:8, quality:4.3381831054687500e+03,
                      le:8.7329924106597900e-02 }
            -
               depth: 6
               value: 1.
               norm_class_idx: 1
            -
               depth: 6
               value: 1.
               norm_class_idx: 1
               splits:
                  - { var:7, quality:4.3337290039062500e+03,
                      le:8.7835930287837982e-02 }
            -
               depth: 7
               value: 1.
               norm_class_idx: 1
               splits:
                  - { var:0, quality:4.2322084960937500e+03,
                      le:2.9261186718940735e-02 }
            -
               depth: 8
               value: 1.
               norm_class_idx: 1
            -
               depth: 8
               value: 1.
               norm_class_idx: 1
            -
               depth: 7
               value: 1.
               norm_class_idx: 1
               splits:
                  - { var:10, quality:1.0657478332519531e+02,
                      le:4.3774589538574219e+01 }
            -
               depth: 8
               value: 1.
               norm_class_idx: 1
            -
               depth: 8
               value: 0.
               norm_class_idx: 0
            -
               depth: 5
               value: 1.
               norm_class_idx: 1
               splits:
                  - { var:3, quality:7.9075933837890625e+02,
                      le:1.2395608425140381e+00 }
            -
               depth: 6
               value: 1.
               norm_class_idx: 1
               splits:
                  - { var:3, quality:2.9611245727539062e+02,
                      le:1.1798982620239258e+00 }
            -
               depth: 7
               value: 1.
               norm_class_idx: 1
               splits:
                  - { var:3, quality:2.7945870971679688e+02,
                      le:6.0358539223670959e-02 }
            -
               depth: 8
               value: 0.
               norm_class_idx: 0
            -
               depth: 8
               value: 1.
               norm_class_idx: 1
            -
               depth: 7
               value: 0.
               norm_class_idx: 0
            -
               depth: 6
               value: 1.
               norm_class_idx: 1
            -
               depth: 3
               value: 0.
               norm_class_idx: 0
            -
               depth: 2
               value: 0.
               norm_class_idx: 0
               splits:
                  - { var:5, quality:2.1468455078125000e+04,
                      le:4.3062702752649784e-04 }
            -
               depth: 3
               value: 0.
               norm_class_idx: 0
               splits:
                  - { var:9, quality:1.2494078125000000e+04,
                      le:2.5343301296234131e+00 }
            -
               depth: 4
               value: 0.
               norm_class_idx: 0
               splits:
                  - { var:3, quality:1.2474351562500000e+04,
                      le:1.2839829921722412e+00 }
            -
               depth: 5
               value: 0.
               norm_class_idx: 0
               splits:
                  - { var:4, quality:1.2718366210937500e+04,
                      le:8.8904626667499542e-02 }
            -
               depth: 6
               value: 1.
               norm_class_idx: 1
               splits:
                  - { var:2, quality:2.8123999023437500e+02,
                      le:1.3792473077774048e-01 }
            -
               depth: 7
               value: 1.
               norm_class_idx: 1
            -
               depth: 7
               value: 1.
               norm_class_idx: 1
               splits:
                  - { var:10, quality:4.0590476989746094e+01,
                      le:1.7064989089965820e+01 }
            -
               depth: 8
               value: 1.
               norm_class_idx: 1
            -
               depth: 8
               value: 0.
               norm_class_idx: 0
            -
               depth: 6
               value: 0.
               norm_class_idx: 0
               splits:
                  - { var:10, quality:1.2634828125000000e+04,
                      le:2.8787462234497070e+01 }
            -
               depth: 7
               value: 0.
               norm_class_idx: 0
               splits:
                  - { var:12, quality:1.2733857421875000e+04,
                      le:1.5733957290649414e+00 }
            -
               depth: 8
               value: 1.
               norm_class_idx: 1
            -
               depth: 8
               value: 0.
               norm_class_idx: 0
            -
               depth: 7
               value: 1.
               norm_class_idx: 1
               splits:
                  - { var:6, quality:1.2302400207519531e+02,
                      le:5.1216316933277994e-05 }
            -
               depth: 8
               value: 0.
               norm_class_idx: 0
            -
               depth: 8
               value: 1.
               norm_class_idx: 1
            -
               depth: 5
               value: 1.
               norm_class_idx: 1
            -
               depth: 4
               value: 1.
               norm_class_idx: 1
               splits:
                  - { var:9, quality:4.2341964721679688e+02,
                      le:2.5434255599975586e+00 }
            -
               depth: 5
               value: 1.
               norm_class_idx: 1
               splits:
                  - { var:12, quality:2.8285715103149414e+01,
                      le:1.9465484619140625e+00 }
            -
               depth: 6
               value: 0.
               norm_class_idx: 0
            -
               depth: 6
               value: 1.
               norm_class_idx: 1
            -
               depth: 5
               value: 1.
               norm_class_idx: 1
               splits:
                  - { var:6, quality:4.0321621704101562e+02,
                      le:2.1298401989042759e-03 }
            -
               depth: 6
               value: 1.
               norm_class_idx: 1
            -
               depth: 6
               value: 1.
               norm_class_idx: 1
               splits:
                  - { var:6, quality:37., le:2.2897112648934126e-03 }
            -
               depth: 7
               value: 0.
               norm_class_idx: 0
            -
               depth: 7
               value: 1.
               norm_class_idx: 1
            -
               depth: 3
               value: 1.
               norm_class_idx: 1
               splits:
                  - { var:3, quality:9.8391220703125000e+03,
                      le:8.8263660669326782e-01 }
            -
               depth: 4
               value: 1.
               norm_class_idx: 1
               splits:
                  - { var:5, quality:8.8834160156250000e+03,
                      le:4.3618484050966799e-04 }
            -
               depth: 5
               value: 1.
               norm_class_idx: 1
               splits:
                  - { var:11, quality:3.8666667938232422e+01,
                      le:1.9407033920288086e-02 }
            -
               depth: 6
               value: 1.
               norm_class_idx: 1
            -
               depth: 6
               value: 0.
               norm_class_idx: 0
            -
               depth: 5
               value: 1.
               norm_class_idx: 1
               splits:
                  - { var:1, quality:8.8474326171875000e+03,
                      le:3.8954593241214752e-02 }
            -
               depth: 6
               value: 1.
               norm_class_idx: 1
               splits:
                  - { var:9, quality:7.9101567382812500e+03,
                      le:2.8019614219665527e+00 }
            -
               depth: 7
               value: 1.
               norm_class_idx: 1
               splits:
                  - { var:8, quality:6.7070634765625000e+03,
                      le:1.0028859227895737e-01 }
            -
               depth: 8
               value: 1.
               norm_class_idx: 1
            -
               depth: 8
               value: 1.
               norm_class_idx: 1
            -
               depth: 7
               value: 1.
               norm_class_idx: 1
               splits:
                  - { var:8, quality:1.2037291259765625e+03,
                      le:1.4961856603622437e-01 }
            -
               depth: 8
               value: 1.
               norm_class_idx: 1
            -
               depth: 8
               value: 1.
               norm_class_idx: 1
            -
               depth: 6
               value: 1.
               norm_class_idx: 1
               splits:
                  - { var:1, quality:9.4125183105468750e+02,
                      le:3.8963608443737030e-02 }
            -
               depth: 7
               value: 0.
               norm_class_idx: 0
            -
               depth: 7
               value: 1.
               norm_class_idx: 1
               splits:
                  - { var:0, quality:9.4050299072265625e+02,
                      le:4.2944304645061493e-02 }
            -
               depth: 8
               value: 1.
               norm_class_idx: 1
            -
               depth: 8
               value: 1.
               norm_class_idx: 1
            -
               depth: 4
               value: 1.
               norm_class_idx: 1
               splits:
                  - { var:5, quality:1.2681253662109375e+03,
                      le:6.1355193611234426e-04 }
            -
               depth: 5
               value: 0.
               norm_class_idx: 0
               splits:
                  - { var:1, quality:4.1095822143554688e+02,
                      le:3.1219234690070152e-02 }
            -
               depth: 6
               value: 1.
               norm_class_idx: 1
               splits:
                  - { var:3, quality:94., le:1.3264331817626953e+00 }
            -
               depth: 7
               value: 0.
               norm_class_idx: 0
            -
               depth: 7
               value: 1.
               norm_class_idx: 1
            -
               depth: 6
               value: 0.
               norm_class_idx: 0
               splits:
                  - { var:3, quality:380., le:1.4823691844940186e+00 }
            -
               depth: 7
               value: 0.
               norm_class_idx: 0
            -
               depth: 7
               value: 1.
               norm_class_idx: 1
            -
               depth: 5
               value: 1.
               norm_class_idx: 1
               splits:
                  - { var:3, quality:1.0514764404296875e+03,
                      le:1.2258405685424805e+00 }
            -
               depth: 6
               value: 0.
               norm_class_idx: 0
            -
               depth: 6
               value: 1.
               norm_class_idx: 1
               splits:
                  - { var:3, quality:1.0157999877929688e+03,
                      le:1.7855792045593262e+00 }
            -
               depth: 7
               value: 1.
               norm_class_idx: 1
               splits:
                  - { var:1, quality:1.4325332641601562e+02,
                      le:3.7319466471672058e-02 }
            -
               depth: 8
               value: 1.
               norm_class_idx: 1
            -
               depth: 8
               value: 0.
               norm_class_idx: 0
            -
               depth: 7
               value: 1.
               norm_class_idx: 1
            -
               depth: 1
               value: 0.
               norm_class_idx: 0
               splits:
                  - { var:10, quality:7.5486257812500000e+04,
                      le:2.3594285964965820e+01 }
            -
               depth: 2
               value: 0.
               norm_class_idx: 0
               splits:
                  - { var:0, quality:7.3252921875000000e+04,
                      le:4.7460809350013733e-02 }
            -
               depth: 3
               value: 1.
               norm_class_idx: 1
               splits:
                  - { var:10, quality:240., le:4.6702895164489746e+00 }
            -
               depth: 4
               value: 0.
               norm_class_idx: 0
            -
               depth: 4
               value: 1.
               norm_class_idx: 1
            -
               depth: 3
               value: 0.
               norm_class_idx: 0
               splits:
                  - { var:12, quality:7.3913609375000000e+04,
                      le:1.5334981679916382e+00 }
            -
               depth: 4
               value: 1.
               norm_class_idx: 1
               splits:
                  - { var:11, quality:4.6497708129882812e+02,
                      le:2.0661480724811554e-02 }
            -
               depth: 5
               value: 1.
               norm_class_idx: 1
               splits:
                  - { var:7, quality:4.5681933593750000e+02,
                      le:7.3731280863285065e-02 }
            -
               depth: 6
               value: 1.
               norm_class_idx: 1
               splits:
                  - { var:2, quality:4.2379998779296875e+02,
                      le:1.3345219194889069e-01 }
            -
               depth: 7
               value: 1.
               norm_class_idx: 1
            -
               depth: 7
               value: 1.
               norm_class_idx: 1
               splits:
                  - { var:1, quality:40., le:5.0660852342844009e-02 }
            -
               depth: 8
               value: 1.
               norm_class_idx: 1
            -
               depth: 8
               value: 0.
               norm_class_idx: 0
            -
               depth: 6
               value: 1.
               norm_class_idx: 1
               splits:
                  - { var:12, quality:4.0523811340332031e+01,
                      le:1.4756290912628174e+00 }
            -
               depth: 7
               value: 1.
               norm_class_idx: 1
            -
               depth: 7
               value: 0.
               norm_class_idx: 0
               splits:
                  - { var:13, quality:1.7666666030883789e+01,
                      le:1.0565297603607178e+00 }
            -
               depth: 8
               value: 1.
               norm_class_idx: 1
            -
               depth: 8
               value: 0.
               norm_class_idx: 0
            -
               depth: 5
               value: 1.
               norm_class_idx: 1
               splits:
                  - { var:8, quality:2.1200000762939453e+01,
                      le:2.0819915831089020e-01 }
            -
               depth: 6
               value: 1.
               norm_class_idx: 1
            -
               depth: 6
               value: 0.
               norm_class_idx: 0
            -
               depth: 4
               value: 0.
               norm_class_idx: 0
               splits:
                  - { var:2, quality:7.3555890625000000e+04,
                      le:1.2461137771606445e+00 }
            -
               depth: 5
               value: 0.
               norm_class_idx: 0
               splits:
                  - { var:3, quality:7.3555546875000000e+04,
                      le:2.2811445593833923e-01 }
            -
               depth: 6
               value: 0.
               norm_class_idx: 0
               splits:
                  - { var:5, quality:7.3559273437500000e+04,
                      le:5.9940060600638390e-03 }
            -
               depth: 7
               value: 0.
               norm_class_idx: 0
               splits:
                  - { var:0, quality:7.3566375000000000e+04,
                      le:5.2190203219652176e-02 }
            -
               depth: 8
               value: 0.
               norm_class_idx: 0
            -
               depth: 8
               value: 0.
               norm_class_idx: 0
            -
               depth: 7
               value: 1.
               norm_class_idx: 1
               splits:
                  - { var:2, quality:2.2333333969116211e+01,
                      le:7.7115461230278015e-02 }
            -
               depth: 8
               value: 1.
               norm_class_idx: 1
            -
               depth: 8
               value: 0.
               norm_class_idx: 0
            -
               depth: 6
               value: 1.
               norm_class_idx: 1
            -
               depth: 5
               value: 1.
               norm_class_idx: 1
               splits:
                  - { var:7, quality:5.7250000000000000e+01,
                      le:1.5130561590194702e-01 }
            -
               depth: 6
               value: 1.
               norm_class_idx: 1
            -
               depth: 6
               value: 0.
               norm_class_idx: 0
            -
               depth: 2
               value: 1.
               norm_class_idx: 1
               splits:
                  - { var:8, quality:2.6739462890625000e+03,
                      le:1.2591531276702881e+00 }
            -
               depth: 3
               value: 1.
               norm_class_idx: 1
               splits:
                  - { var:8, quality:2.4312687988281250e+03,
                      le:3.3915835618972778e-01 }
            -
               depth: 4
               value: 1.
               norm_class_idx: 1
               splits:
                  - { var:8, quality:2.3134184570312500e+03,
                      le:1.3544031977653503e-01 }
            -
               depth: 5
               value: 0.
               norm_class_idx: 0
            -
               depth: 5
               value: 1.
               norm_class_idx: 1
               splits:
                  - { var:7, quality:2.3090129394531250e+03,
                      le:1.5139722824096680e-01 }
            -
               depth: 6
               value: 1.
               norm_class_idx: 1
               splits:
                  - { var:0, quality:2.2962028808593750e+03,
                      le:5.3643003106117249e-02 }
            -
               depth: 7
               value: 1.
               norm_class_idx: 1
               splits:
                  - { var:12, quality:2.0794941406250000e+03,
                      le:1.1621155738830566e+00 }
            -
               depth: 8
               value: 1.
               norm_class_idx: 1
            -
               depth: 8
               value: 1.
               norm_class_idx: 1
            -
               depth: 7
               value: 1.
               norm_class_idx: 1
               splits:
                  - { var:5, quality:2.2630900573730469e+02,
                      le:3.9651140104979277e-04 }
            -
               depth: 8
               value: 0.
               norm_class_idx: 0
            -
               depth: 8
               value: 1.
               norm_class_idx: 1
            -
               depth: 6
               value: 0.
               norm_class_idx: 0
               splits:
                  - { var:13, quality:2.1444444656372070e+01,
                      le:1.0924168825149536e+00 }
            -
               depth: 7
               value: 1.
               norm_class_idx: 1
            -
               depth: 7
               value: 0.
               norm_class_idx: 0
            -
               depth: 4
               value: 1.
               norm_class_idx: 1
               splits:
                  - { var:11, quality:2.3379020690917969e+02,
                      le:8.4750540554523468e-03 }
            -
               depth: 5
               value: 0.
               norm_class_idx: 0
               splits:
                  - { var:0, quality:119., le:8.6652569472789764e-02 }
            -
               depth: 6
               value: 1.
               norm_class_idx: 1
            -
               depth: 6
               value: 0.
               norm_class_idx: 0
            -
               depth: 5
               value: 1.
               norm_class_idx: 1
               splits:
                  - { var:4, quality:1.9547373962402344e+02,
                      le:3.0897217988967896e-01 }
            -
               depth: 6
               value: 1.
               norm_class_idx: 1
               splits:
                  - { var:0, quality:1.6204167175292969e+02,
                      le:6.1558447778224945e-02 }
            -
               depth: 7
               value: 1.
               norm_class_idx: 1
            -
               depth: 7
               value: 1.
               norm_class_idx: 1
               splits:
                  - { var:0, quality:48., le:6.1943002045154572e-02 }
            -
               depth: 8
               value: 0.
               norm_class_idx: 0
            -
               depth: 8
               value: 1.
               norm_class_idx: 1
            -
               depth: 6
               value: 0.
               norm_class_idx: 0
               splits:
                  - { var:5, quality:3.7500000000000000e+01,
                      le:5.5329431779682636e-03 }
            -
               depth: 7
               value: 0.
               norm_class_idx: 0
            -
               depth: 7
               value: 1.
               norm_class_idx: 1
            -
               depth: 3
               value: 0.
               norm_class_idx: 0
      -
         nodes:
            -
               depth: 0
               value: 0.
               norm_class_idx: 0
               splits:
                  - { var:1, quality:1.0107731250000000e+05,
                      le:4.3052397668361664e-02 }
            -
               depth: 1
               value: 1.
               norm_class_idx: 1
               splits:
                  - { var:0, quality:3.7944074218750000e+04,
                      le:3.2328762114048004e-02 }
            -
               depth: 2
               value: 1.
               norm_class_idx: 1
               splits:
                  - { var:3, quality:2.2750472656250000e+04,
                      le:6.3249222934246063e-02 }
            -
               depth: 3
               value: 1.
               norm_class_idx: 1
               splits:
                  - { var:7, quality:1.8976285156250000e+04,
                      le:5.5344045162200928e-02 }
            -
               depth: 4
               value: 1.
               norm_class_idx: 1
               splits:
                  - { var:10, quality:8.0865639648437500e+03,
                      le:3.3199562072753906e+01 }
            -
               depth: 5
               value: 1.
               norm_class_idx: 1
               splits:
                  - { var:8, quality:5.4700664062500000e+03,
                      le:6.6279307007789612e-02 }
            -
               depth: 6
               value: 1.
               norm_class_idx: 1
               splits:
                  - { var:8, quality:1.0796165771484375e+03,
                      le:6.6208750009536743e-02 }
            -
               depth: 7
               value: 1.
               norm_class_idx: 1
               splits:
                  - { var:5, quality:1.0771138916015625e+03,
                      le:1.0708156332839280e-04 }
            -
               depth: 8
               value: 1.
               norm_class_idx: 1
            -
               depth: 8
               value: 1.
               norm_class_idx: 1
            -
               depth: 7
               value: 0.
               norm_class_idx: 0
            -
               depth: 6
               value: 1.
               norm_class_idx: 1
               splits:
                  - { var:4, quality:4.3940029296875000e+03,
                      le:8.1117153167724609e-02 }
            -
               depth: 7
               value: 1.
               norm_class_idx: 1
            -
               depth: 7
               value: 1.
               norm_class_idx: 1
               splits:
                  - { var:4, quality:669., le:8.1128820776939392e-02 }
            -
               depth: 8
               value: 0.
               norm_class_idx: 0
            -
               depth: 8
               value: 1.
               norm_class_idx: 1
            -
               depth: 5
               value: 1.
               norm_class_idx: 1
               splits:
                  - { var:10, quality:2.6224318847656250e+03,
                      le:3.3211853027343750e+01 }
            -
               depth: 6
               value: 0.
               norm_class_idx: 0
            -
               depth: 6
               value: 1.
               norm_class_idx: 1
               splits:
                  - { var:7, quality:2.6213967285156250e+03,
                      le:5.5337041616439819e-02 }
            -
               depth: 7
               value: 1.
               norm_class_idx: 1
               splits:
                  - { var:8, quality:2.6207258300781250e+03,
                      le:1.0730074346065521e-01 }
            -
               depth: 8
               value: 1.
               norm_class_idx: 1
            -
               depth: 8
               value: 1.
               norm_class_idx: 1
            -
               depth: 7
               value: 0.
               norm_class_idx: 0
            -
               depth: 4
               value: 1.
               norm_class_idx: 1
               splits:
                  - { var:9, quality:1.0890018554687500e+04,
                      le:2.6536879539489746e+00 }
            -
               depth: 5
               value: 1.
               norm_class_idx: 1
            -
               depth: 5
               value: 1.
               norm_class_idx: 1
               splits:
                  - { var:9, quality:4.2100473022460938e+02,
                      le:2.6544747352600098e+00 }
            -
               depth: 6
               value: 0.
               norm_class_idx: 0
            -
               depth: 6
               value: 1.
               norm_class_idx: 1
               splits:
                  - { var:5, quality:4.2001980590820312e+02,
                      le:1.2176462769275531e-04 }
            -
               depth: 7
               value: 1.
               norm_class_idx: 1
               splits:
                  - { var:13, quality:101., le:1.0377173423767090e+00 }
            -
               depth: 8
               value: 0.
               norm_class_idx: 0
            -
               depth: 8
               value: 1.
               norm_class_idx: 1
            -
               depth: 7
               value: 1.
               norm_class_idx: 1
            -
               depth: 3
               value: 1.
               norm_class_idx: 1
               splits:
                  - { var:1, quality:3.7954941406250000e+03,
                      le:2.5482483208179474e-02 }
            -
               depth: 4
               value: 1.
               norm_class_idx: 1
               splits:
                  - { var:1, quality:3.6382309570312500e+03,
                      le:2.2522103041410446e-02 }
            -
               depth: 5
               value: 1.
               norm_class_idx: 1
               splits:
                  - { var:9, quality:2.9482685546875000e+03,
                      le:2.0314340591430664e+00 }
            -
               depth: 6
               value: 1.
               norm_class_idx: 1
               splits:
                  - { var:9, quality:2.6206793212890625e+02,
                      le:2.0308861732482910e+00 }
            -
               depth: 7
               value: 1.
               norm_class_idx: 1
               splits:
                  - { var:12, quality:265., le:1.5391243696212769e+00 }
            -
               depth: 8
               value: 0.
               norm_class_idx: 0
            -
               depth: 8
               value: 1.
               norm_class_idx: 1
            -
               depth: 7
               value: 0.
               norm_class_idx: 0
            -
               depth: 6
               value: 1.
               norm_class_idx: 1
            -
               depth: 5
               value: 1.
               norm_class_idx: 1
               splits:
                  - { var:3, quality:6.9616119384765625e+02,
                      le:9.4725608825683594e-02 }
            -
               depth: 6
               value: 1.
               norm_class_idx: 1
               splits:
                  - { var:11, quality:8.2165580749511719e+01,
                      le:4.7790315002202988e-03 }
            -
               depth: 7
               value: 0.
               norm_class_idx: 0
               splits:
                  - { var:9, quality:2.0355556488037109e+01,
                      le:2.5398378372192383e+00 }
            -
               depth: 8
               value: 0.
               norm_class_idx: 0
            -
               depth: 8
               value: 1.
               norm_class_idx: 1
            -
               depth: 7
               value: 1.
               norm_class_idx: 1
               splits:
                  - { var:7, quality:7.0684211730957031e+01,
                      le:3.3705383539199829e-02 }
            -
               depth: 8
               value: 1.
               norm_class_idx: 1
            -
               depth: 8
               value: 1.
               norm_class_idx: 1
            -
               depth: 6
               value: 1.
               norm_class_idx: 1
               splits:
                  - { var:9, quality:6.2700317382812500e+02,
                      le:1.7799093723297119e+00 }
            -
               depth: 7
               value: 0.
               norm_class_idx: 0
            -
               depth: 7
               value: 1.
               norm_class_idx: 1
               splits:
                  - { var:11, quality:6.2608001708984375e+02,
                      le:2.2368710488080978e-03 }
            -
               depth: 8
               value: 1.
               norm_class_idx: 1
            -
               depth: 8
               value: 1.
               norm_class_idx: 1
            -
               depth: 4
               value: 1.
               norm_class_idx: 1
               splits:
                  - { var:5, quality:2.0376872253417969e+02,
                      le:5.8606608945410699e-05 }
            -
               depth: 5
               value: 0.
               norm_class_idx: 0
               splits:
                  - { var:9, quality:5.0177776336669922e+01,
                      le:2.3573639392852783e+00 }
            -
               depth: 6
               value: 0.
               norm_class_idx: 0
               splits:
                  - { var:8, quality:45., le:8.8000267744064331e-02 }
            -
               depth: 7
               value: 1.
               norm_class_idx: 1
            -
               depth: 7
               value: 0.
               norm_class_idx: 0
            -
               depth: 6
               value: 1.
               norm_class_idx: 1
            -
               depth: 5
               value: 1.
               norm_class_idx: 1
               splits:
                  - { var:3, quality:1.6919059753417969e+02,
                      le:1.2390679121017456e+00 }
            -
               depth: 6
               value: 1.
               norm_class_idx: 1
               splits:
                  - { var:12, quality:4.9098361968994141e+01,
                      le:2.7701609134674072e+00 }
            -
               depth: 7
               value: 1.
               norm_class_idx: 1
               splits:
                  - { var:5, quality:4.8826374053955078e+01,
                      le:4.7452509170398116e-04 }
            -
               depth: 8
               value: 1.
               norm_class_idx: 1
            -
               depth: 8
               value: 1.
               norm_class_idx: 1
            -
               depth: 7
               value: 0.
               norm_class_idx: 0
            -
               depth: 6
               value: 1.
               norm_class_idx: 1
               splits:
                  - { var:12, quality:125., le:2.7786333560943604e+00 }
            -
               depth: 7
               value: 1.
               norm_class_idx: 1
            -
               depth: 7
               value: 0.
               norm_class_idx: 0
            -
               depth: 2
               value: 0.
               norm_class_idx: 0
               splits:
                  - { var:5, quality:2.6008671875000000e+04,
                      le:3.9108510827645659e-04 }
            -
               depth: 3
               value: 0.
               norm_class_idx: 0
               splits:
                  - { var:3, quality:1.4732654296875000e+04,
                      le:1.2701129913330078e+00 }
            -
               depth: 4
               value: 0.
               norm_class_idx: 0
               splits:
                  - { var:11, quality:1.4820304687500000e+04,
                      le:5.2953502163290977e-03 }
            -
               depth: 5
               value: 1.
               norm_class_idx: 1
               splits:
                  - { var:1, quality:2.3324243164062500e+02,
                      le:3.1928032636642456e-02 }
            -
               depth: 6
               value: 1.
               norm_class_idx: 1
            -
               depth: 6
               value: 1.
               norm_class_idx: 1
               splits:
                  - { var:8, quality:31., le:1.1886560916900635e-01 }
            -
               depth: 7
               value: 0.
               norm_class_idx: 0
            -
               depth: 7
               value: 1.
               norm_class_idx: 1
            -
               depth: 5
               value: 0.
               norm_class_idx: 0
               splits:
                  - { var:12, quality:1.4962754882812500e+04,
                      le:1.6571494340896606e+00 }
            -
               depth: 6
               value: 1.
               norm_class_idx: 1
               splits:
                  - { var:4, quality:3.0732467651367188e+02,
                      le:1.0107327997684479e-01 }
            -
               depth: 7
               value: 1.
               norm_class_idx: 1
            -
               depth: 7
               value: 0.
               norm_class_idx: 0
               splits:
                  - { var:5, quality:1.0464874267578125e+02,
                      le:2.7630181284621358e-04 }
            -
               depth: 8
               value: 0.
               norm_class_idx: 0
            -
               depth: 8
               value: 1.
               norm_class_idx: 1
            -
               depth: 6
               value: 0.
               norm_class_idx: 0
               splits:
                  - { var:4, quality:1.4925699218750000e+04,
                      le:8.8720820844173431e-02 }
            -
               depth: 7
               value: 1.
               norm_class_idx: 1
               splits:
                  - { var:5, quality:1.1259999847412109e+02,
                      le:3.2391317654401064e-04 }
            -
               depth: 8
               value: 1.
               norm_class_idx: 1
            -
               depth: 8
               value: 1.
               norm_class_idx: 1
            -
               depth: 7
               value: 0.
               norm_class_idx: 0
               splits:
                  - { var:9, quality:1.5009684570312500e+04,
                      le:2.5342264175415039e+00 }
            -
               depth: 8
               value: 0.
               norm_class_idx: 0
            -
               depth: 8
               value: 1.
               norm_class_idx: 1
            -
               depth: 4
               value: 1.
               norm_class_idx: 1
               splits:
                  - { var:8, quality:322., le:1.6981780529022217e-01 }
            -
               depth: 5
               value: 1.
               norm_class_idx: 1
            -
               depth: 5
               value: 0.
               norm_class_idx: 0
            -
               depth: 3
               value: 1.
               norm_class_idx: 1
               splits:
                  - { var:3, quality:1.2127911132812500e+04,
                      le:9.2975926399230957e-01 }
            -
               depth: 4
               value: 1.
               norm_class_idx: 1
               splits:
                  - { var:0, quality:1.0907542968750000e+04,
                      le:4.8360213637351990e-02 }
            -
               depth: 5
               value: 1.
               norm_class_idx: 1
               splits:
                  - { var:3, quality:9.9746005859375000e+03,
                      le:5.9594142436981201e-01 }
            -
               depth: 6
               value: 1.
               norm_class_idx: 1
               splits:
                  - { var:13, quality:9.9691289062500000e+03,
                      le:1.6580487489700317e+00 }
            -
               depth: 7
               value: 1.
               norm_class_idx: 1
               splits:
                  - { var:13, quality:9.8713271484375000e+03,
                      le:1.3518555164337158e+00 }
            -
               depth: 8
               value: 1.
               norm_class_idx: 1
            -
               depth: 8
               value: 1.
               norm_class_idx: 1
            -
               depth: 7
               value: 1.
               norm_class_idx: 1
               splits:
                  - { var:13, quality:1.0516822052001953e+02,
                      le:1.6631543636322021e+00 }
            -
               depth: 8
               value: 0.
               norm_class_idx: 0
            -
               depth: 8
               value: 1.
               norm_class_idx: 1
            -
               depth: 6
               value: 1.
               norm_class_idx: 1
            -
               depth: 5
               value: 1.
               norm_class_idx: 1
               splits:
                  - { var:10, quality:9.4532781982421875e+02,
                      le:7.0314211845397949e+00 }
            -
               depth: 6
               value: 0.
               norm_class_idx: 0
            -
               depth: 6
               value: 1.
               norm_class_idx: 1
               splits:
                  - { var:5, quality:9.4307055664062500e+02,
                      le:5.4787623230367899e-04 }
            -
               depth: 7
               value: 1.
               norm_class_idx: 1
            -
               depth: 7
               value: 1.
               norm_class_idx: 1
               splits:
                  - { var:0, quality:9.3413488769531250e+02,
                      le:4.8363212496042252e-02 }
            -
               depth: 8
               value: 0.
               norm_class_idx: 0
            -
               depth: 8
               value: 1.
               norm_class_idx: 1
            -
               depth: 4
               value: 1.
               norm_class_idx: 1
               splits:
                  - { var:3, quality:2.0566247558593750e+03,
                      le:1.2313108444213867e+00 }
            -
               depth: 5
               value: 0.
               norm_class_idx: 0
            -
               depth: 5
               value: 1.
               norm_class_idx: 1
               splits:
                  - { var:5, quality:1.4483575439453125e+03,
                      le:3.3754794858396053e-03 }
            -
               depth: 6
               value: 1.
               norm_class_idx: 1
               splits:
                  - { var:9, quality:1.3141951904296875e+03,
                      le:2.8126783370971680e+00 }
            -
               depth: 7
               value: 1.
               norm_class_idx: 1
               splits:
                  - { var:3, quality:1.2271999511718750e+03,
                      le:1.5237872600555420e+00 }
            -
               depth: 8
               value: 1.
               norm_class_idx: 1
            -
               depth: 8
               value: 1.
               norm_class_idx: 1
            -
               depth: 7
               value: 1.
               norm_class_idx: 1
               splits:
                  - { var:3, quality:90., le:1.7720156908035278e+00 }
            -
               depth: 8
               value: 0.
               norm_class_idx: 0
            -
               depth: 8
               value: 1.
               norm_class_idx: 1
            -
               depth: 6
               value: 1.
               norm_class_idx: 1
               splits:
                  - { var:3, quality:1.8224243164062500e+02,
                      le:1.8158609867095947e+00 }
            -
               depth: 7
               value: 0.
               norm_class_idx: 0
               splits:
                  - { var:6, quality:33., le:4.2444345308467746e-04 }
            -
               depth: 8
               value: 1.
               norm_class_idx: 1
            -
               depth: 8
               value: 0.
               norm_class_idx: 0
            -
               depth: 7
               value: 1.
               norm_class_idx: 1
            -
               depth: 1
               value: 0.
               norm_class_idx: 0
               splits:
                  - { var:10, quality:7.1401429687500000e+04,
                      le:2.4758966445922852e+01 }
            -
               depth: 2
               value: 0.
               norm_class_idx: 0
               splits:
                  - { var:3, quality:7.0659804687500000e+04,
                      le:2.2480116784572601e-01 }
            -
               depth: 3
               value: 0.
               norm_class_idx: 0
               splits:
                  - { var:4, quality:7.0977593750000000e+04,
                      le:1.2956832349300385e-01 }
            -
               depth: 4
               value: 1.
               norm_class_idx: 1
               splits:
                  - { var:12, quality:1.9919999694824219e+02,
                      le:1.5897028446197510e+00 }
            -
               depth: 5
               value: 1.
               norm_class_idx: 1
            -
               depth: 5
               value: 0.
               norm_class_idx: 0
            -
               depth: 4
               value: 0.
               norm_class_idx: 0
               splits:
                  - { var:12, quality:7.1176609375000000e+04,
                      le:1.4993969202041626e+00 }
            -
               depth: 5
               value: 1.
               norm_class_idx: 1
               splits:
                  - { var:12, quality:1.9314285278320312e+02,
                      le:1.4924662113189697e+00 }
            -
               depth: 6
               value: 1.
               norm_class_idx: 1
            -
               depth: 6
               value: 1.
               norm_class_idx: 1
            -
               depth: 5
               value: 0.
               norm_class_idx: 0
               splits:
                  - { var:10, quality:7.1006109375000000e+04,
                      le:2.2339305877685547e+01 }
            -
               depth: 6
               value: 0.
               norm_class_idx: 0
               splits:
                  - { var:2, quality:7.0891882812500000e+04,
                      le:1.4128484725952148e+00 }
            -
               depth: 7
               value: 0.
               norm_class_idx: 0
               splits:
                  - { var:12, quality:7.0890148437500000e+04,
                      le:1.5564036369323730e+00 }
            -
               depth: 8
               value: 0.
               norm_class_idx: 0
            -
               depth: 8
               value: 0.
               norm_class_idx: 0
            -
               depth: 7
               value: 1.
               norm_class_idx: 1
               splits:
                  - { var:5, quality:31., le:1.4170975191518664e-03 }
            -
               depth: 8
               value: 0.
               norm_class_idx: 0
            -
               depth: 8
               value: 1.
               norm_class_idx: 1
            -
               depth: 6
               value: 0.
               norm_class_idx: 0
               splits:
                  - { var:1, quality:2.0043496704101562e+02,
                      le:7.8886032104492188e-02 }
            -
               depth: 7
               value: 1.
               norm_class_idx: 1
               splits:
                  - { var:9, quality:4.7736843109130859e+01,
                      le:2.5100281238555908e+00 }
            -
               depth: 8
               value: 0.
               norm_class_idx: 0
            -
               depth: 8
               value: 1.
               norm_class_idx: 1
            -
               depth: 7
               value: 0.
               norm_class_idx: 0
               splits:
                  - { var:1, quality:169., le:8.5232958197593689e-02 }
            -
               depth: 8
               value: 0.
               norm_class_idx: 0
            -
               depth: 8
               value: 1.
               norm_class_idx: 1
            -
               depth: 3
               value: 1.
               norm_class_idx: 1
            -
               depth: 2
               value: 1.
               norm_class_idx: 1
               splits:
                  - { var:7, quality:9.4191345214843750e+02,
                      le:1.5236726403236389e-01 }
            -
               depth: 3
               value: 1.
               norm_class_idx: 1
               splits:
                  - { var:9, quality:5.4464465332031250e+02,
                      le:2.4148750305175781e+00 }
            -
               depth: 4
               value: 0.
               norm_class_idx: 0
            -
               depth: 4
               value: 1.
               norm_class_idx: 1
               splits:
                  - { var:7, quality:5.4128271484375000e+02,
                      le:1.2976117432117462e-01 }
            -
               depth: 5
               value: 1.
               norm_class_idx: 1
               splits:
                  - { var:8, quality:5.3636102294921875e+02,
                      le:7.9002356529235840e-01 }
            -
               depth: 6
               value: 1.
               norm_class_idx: 1
               splits:
                  - { var:9, quality:5.3479455566406250e+02,
                      le:2.4686670303344727e+00 }
            -
               depth: 7
               value: 1.
               norm_class_idx: 1
            -
               depth: 7
               value: 1.
               norm_class_idx: 1
               splits:
                  - { var:12, quality:5.3283520507812500e+02,
                      le:2.4230475425720215e+00 }
            -
               depth: 8
               value: 1.
               norm_class_idx: 1
            -
               depth: 8
               value: 1.
               norm_class_idx: 1
            -
               depth: 6
               value: 0.
               norm_class_idx: 0
            -
               depth: 5
               value: 1.
               norm_class_idx: 1
            -
               depth: 3
               value: 0.
               norm_class_idx: 0
               splits:
                  - { var:0, quality:4.1301922607421875e+02,
                      le:5.7889193296432495e-02 }
            -
               depth: 4
               value: 1.
               norm_class_idx: 1
            -
               depth: 4
               value: 0.
               norm_class_idx: 0
               splits:
                  - { var:1, quality:4.1400482177734375e+02,
                      le:5.0207249820232391e-02 }
            -
               depth: 5
               value: 1.
               norm_class_idx: 1
            -
               depth: 5
               value: 0.
               norm_class_idx: 0
               splits:
                  - { var:0, quality:4.1325000000000000e+02,
                      le:6.2604367733001709e-02 }
            -
               depth: 6
               value: 0.
               norm_class_idx: 0
            -
               depth: 6
               value: 0.
               norm_class_idx: 0
      -
         nodes:
            -
               depth: 0
               value: 0.
               norm_class_idx: 0
               splits:
                  - { var:4, quality:9.9724289062500000e+04,
                      le:1.2683701515197754e-01 }
            -
               depth: 1
               value: 1.
               norm_class_idx: 1
               splits:
                  - { var:4, quality:3.5012234375000000e+04,
                      le:8.8987194001674652e-02 }
            -
               depth: 2
               value: 1.
               norm_class_idx: 1
               splits:
                  - { var:4, quality:2.2008082031250000e+04,
                      le:8.8796600699424744e-02 }
            -
               depth: 3
               value: 1.
               norm_class_idx: 1
               splits:
                  - { var:1, quality:2.1918142578125000e+04,
                      le:3.1486362218856812e-02 }
            -
               depth: 4
               value: 1.
               norm_class_idx: 1
               splits:
                  - { var:12, quality:2.1891912109375000e+04,
                      le:2.9039893150329590e+00 }
            -
               depth: 5
               value: 1.
               norm_class_idx: 1
               splits:
                  - { var:5, quality:2.1856384765625000e+04,
                      le:7.7992022852413356e-05 }
            -
               depth: 6
               value: 1.
               norm_class_idx: 1
               splits:
                  - { var:9, quality:1.4341014648437500e+04,
                      le:2.3797001838684082e+00 }
            -
               depth: 7
               value: 1.
               norm_class_idx: 1
               splits:
                  - { var:10, quality:1.2068000976562500e+04,
                      le:1.2527408599853516e+01 }
            -
               depth: 8
               value: 1.
               norm_class_idx: 1
            -
               depth: 8
               value: 1.
               norm_class_idx: 1
            -
               depth: 7
               value: 1.
               norm_class_idx: 1
               splits:
                  - { var:11, quality:2.2730620117187500e+03,
                      le:4.1555212810635567e-03 }
            -
               depth: 8
               value: 1.
               norm_class_idx: 1
            -
               depth: 8
               value: 1.
               norm_class_idx: 1
            -
               depth: 6
               value: 1.
               norm_class_idx: 1
               splits:
                  - { var:4, quality:7.5154995117187500e+03,
                      le:7.5478062033653259e-02 }
            -
               depth: 7
               value: 1.
               norm_class_idx: 1
               splits:
                  - { var:0, quality:3.2930532226562500e+03,
                      le:2.4369150400161743e-02 }
            -
               depth: 8
               value: 1.
               norm_class_idx: 1
            -
               depth: 8
               value: 1.
               norm_class_idx: 1
            -
               depth: 7
               value: 1.
               norm_class_idx: 1
               splits:
                  - { var:12, quality:4.2233842773437500e+03,
                      le:2.0063912868499756e+00 }
            -
               depth: 8
               value: 1.
               norm_class_idx: 1
            -
               depth: 8
               value: 1.
               norm_class_idx: 1
            -
               depth: 5
               value: 1.
               norm_class_idx: 1
               splits:
                  - { var:0, quality:3.7461540222167969e+01,
                      le:2.8231957927346230e-02 }
            -
               depth: 6
               value: 1.
               norm_class_idx: 1
            -
               depth: 6
               value: 1.
               norm_class_idx: 1
            -
               depth: 4
               value: 1.
               norm_class_idx: 1
               splits:
                  - { var:1, quality:2.8545454025268555e+01,
                      le:3.1639561057090759e-02 }
            -
               depth: 5
               value: 0.
               norm_class_idx: 0
            -
               depth: 5
               value: 1.
               norm_class_idx: 1
               splits:
                  - { var:2, quality:3.0600000381469727e+01,
                      le:1.1379247158765793e-01 }
            -
               depth: 6
               value: 1.
               norm_class_idx: 1
            -
               depth: 6
               value: 0.
               norm_class_idx: 0
            -
               depth: 3
               value: 1.
               norm_class_idx: 1
               splits:
                  - { var:3, quality:1.0270173645019531e+02,
                      le:7.9996871948242188e-01 }
            -
               depth: 4
               value: 1.
               norm_class_idx: 1
               splits:
                  - { var:3, quality:9.0500000000000000e+01,
                      le:8.4021851420402527e-02 }
            -
               depth: 5
               value: 1.
               norm_class_idx: 1
            -
               depth: 5
               value: 1.
               norm_class_idx: 1
            -
               depth: 4
               value: 0.
               norm_class_idx: 0
               splits:
                  - { var:9, quality:25., le:2.2775123119354248e+00 }
            -
               depth: 5
               value: 0.
               norm_class_idx: 0
            -
               depth: 5
               value: 1.
               norm_class_idx: 1
            -
               depth: 2
               value: 0.
               norm_class_idx: 0
               splits:
                  - { var:13, quality:2.1275628906250000e+04,
                      le:1.1949039697647095e+00 }
            -
               depth: 3
               value: 1.
               norm_class_idx: 1
               splits:
                  - { var:2, quality:9.7354775390625000e+03,
                      le:3.6975774168968201e-01 }
            -
               depth: 4
               value: 1.
               norm_class_idx: 1
               splits:
                  - { var:6, quality:8.4317656250000000e+03,
                      le:9.3657843535766006e-04 }
            -
               depth: 5
               value: 1.
               norm_class_idx: 1
               splits:
                  - { var:5, quality:7.7860947265625000e+03,
                      le:7.7651275205425918e-05 }
            -
               depth: 6
               value: 1.
               norm_class_idx: 1
            -
               depth: 6
               value: 1.
               norm_class_idx: 1
               splits:
                  - { var:12, quality:7.7798720703125000e+03,
                      le:2.1571795940399170e+00 }
            -
               depth: 7
               value: 1.
               norm_class_idx: 1
               splits:
                  - { var:3, quality:7.3562377929687500e+03,
                      le:6.1392980813980103e-01 }
            -
               depth: 8
               value: 1.
               norm_class_idx: 1
            -
               depth: 8
               value: 1.
               norm_class_idx: 1
            -
               depth: 7
               value: 1.
               norm_class_idx: 1
               splits:
                  - { var:12, quality:4.2944842529296875e+02,
                      le:2.1576895713806152e+00 }
            -
               depth: 8
               value: 0.
               norm_class_idx: 0
            -
               depth: 8
               value: 1.
               norm_class_idx: 1
            -
               depth: 5
               value: 1.
               norm_class_idx: 1
               splits:
                  - { var:10, quality:6.5508020019531250e+02,
                      le:3.4305015563964844e+01 }
            -
               depth: 6
               value: 1.
               norm_class_idx: 1
               splits:
                  - { var:9, quality:1.5475747680664062e+02,
                      le:2.8350176811218262e+00 }
            -
               depth: 7
               value: 1.
               norm_class_idx: 1
               splits:
                  - { var:3, quality:1.3812857055664062e+02,
                      le:9.1172444820404053e-01 }
            -
               depth: 8
               value: 1.
               norm_class_idx: 1
            -
               depth: 8
               value: 0.
               norm_class_idx: 0
            -
               depth: 7
               value: 0.
               norm_class_idx: 0
               splits:
                  - { var:11, quality:26., le:1.1659796349704266e-02 }
            -
               depth: 8
               value: 0.
               norm_class_idx: 0
            -
               depth: 8
               value: 1.
               norm_class_idx: 1
            -
               depth: 6
               value: 1.
               norm_class_idx: 1
               splits:
                  - { var:2, quality:5.3736749267578125e+02,
                      le:8.3092808723449707e-02 }
            -
               depth: 7
               value: 1.
               norm_class_idx: 1
               splits:
                  - { var:9, quality:5.1901940917968750e+02,
                      le:2.6958923339843750e+00 }
            -
               depth: 8
               value: 1.
               norm_class_idx: 1
            -
               depth: 8
               value: 1.
               norm_class_idx: 1
            -
               depth: 7
               value: 1.
               norm_class_idx: 1
               splits:
                  - { var:9, quality:2.0095237731933594e+01,
                      le:2.8805971145629883e+00 }
            -
               depth: 8
               value: 1.
               norm_class_idx: 1
            -
               depth: 8
               value: 0.
               norm_class_idx: 0
            -
               depth: 4
               value: 1.
               norm_class_idx: 1
               splits:
                  - { var:9, quality:1.4933690185546875e+03,
                      le:2.5434255599975586e+00 }
            -
               depth: 5
               value: 0.
               norm_class_idx: 0
               splits:
                  - { var:2, quality:4.8219232177734375e+02,
                      le:4.1884726285934448e-01 }
            -
               depth: 6
               value: 0.
               norm_class_idx: 0
               splits:
                  - { var:12, quality:260., le:1.6985172033309937e+00 }
            -
               depth: 7
               value: 1.
               norm_class_idx: 1
            -
               depth: 7
               value: 0.
               norm_class_idx: 0
            -
               depth: 6
               value: 1.
               norm_class_idx: 1
            -
               depth: 5
               value: 1.
               norm_class_idx: 1
               splits:
                  - { var:0, quality:1.2470992431640625e+03,
                      le:3.7992186844348907e-02 }
            -
               depth: 6
               value: 1.
               norm_class_idx: 1
            -
               depth: 6
               value: 1.
               norm_class_idx: 1
               splits:
                  - { var:2, quality:5.0025000000000000e+02,
                      le:4.0856647491455078e-01 }
            -
               depth: 7
               value: 0.
               norm_class_idx: 0
            -
               depth: 7
               value: 1.
               norm_class_idx: 1
            -
               depth: 3
               value: 0.
               norm_class_idx: 0
               splits:
                  - { var:8, quality:1.2885428710937500e+04,
                      le:1.2067758291959763e-01 }
            -
               depth: 4
               value: 0.
               norm_class_idx: 0
               splits:
                  - { var:2, quality:1.2319826171875000e+04,
                      le:6.2743371725082397e-01 }
            -
               depth: 5
               value: 0.
               norm_class_idx: 0
               splits:
                  - { var:12, quality:1.2430947265625000e+04,
                      le:1.6688226461410522e+00 }
            -
               depth: 6
               value: 1.
               norm_class_idx: 1
               splits:
                  - { var:7, quality:3.4822286987304688e+02,
                      le:9.1353863477706909e-02 }
            -
               depth: 7
               value: 1.
               norm_class_idx: 1
               splits:
                  - { var:4, quality:2.5739129638671875e+02,
                      le:1.0171764343976974e-01 }
            -
               depth: 8
               value: 1.
               norm_class_idx: 1
            -
               depth: 8
               value: 1.
               norm_class_idx: 1
            -
               depth: 7
               value: 0.
               norm_class_idx: 0
               splits:
                  - { var:4, quality:1.2484962463378906e+02,
                      le:1.0607507824897766e-01 }
            -
               depth: 8
               value: 0.
               norm_class_idx: 0
            -
               depth: 8
               value: 1.
               norm_class_idx: 1
            -
               depth: 6
               value: 0.
               norm_class_idx: 0
               splits:
                  - { var:11, quality:1.2447235351562500e+04,
                      le:5.2956291474401951e-03 }
            -
               depth: 7
               value: 1.
               norm_class_idx: 1
               splits:
                  - { var:6, quality:1.4719999694824219e+02,
                      le:2.1003480069339275e-03 }
            -
               depth: 8
               value: 1.
               norm_class_idx: 1
            -
               depth: 8
               value: 1.
               norm_class_idx: 1
            -
               depth: 7
               value: 0.
               norm_class_idx: 0
               splits:
                  - { var:10, quality:1.2559033203125000e+04,
                      le:2.7393844604492188e+01 }
            -
               depth: 8
               value: 0.
               norm_class_idx: 0
            -
               depth: 8
               value: 1.
               norm_class_idx: 1
            -
               depth: 5
               value: 1.
               norm_class_idx: 1
               splits:
                  - { var:9, quality:2.3933332824707031e+02,
                      le:1.9218366146087646e+00 }
            -
               depth: 6
               value: 0.
               norm_class_idx: 0
            -
               depth: 6
               value: 1.
               norm_class_idx: 1
            -
               depth: 4
               value: 1.
               norm_class_idx: 1
               splits:
                  - { var:5, quality:1.1040528564453125e+03,
                      le:1.4630510122515261e-04 }
            -
               depth: 5
               value: 0.
               norm_class_idx: 0
               splits:
                  - { var:10, quality:1.4598703002929688e+02,
                      le:8.4530582427978516e+00 }
            -
               depth: 6
               value: 0.
               norm_class_idx: 0
               splits:
                  - { var:13, quality:1.2826586914062500e+02,
                      le:1.7291352748870850e+00 }
            -
               depth: 7
               value: 0.
               norm_class_idx: 0
               splits:
                  - { var:13, quality:126., le:1.4397068023681641e+00 }
            -
               depth: 8
               value: 1.
               norm_class_idx: 1
            -
               depth: 8
               value: 0.
               norm_class_idx: 0
            -
               depth: 7
               value: 0.
               norm_class_idx: 0
            -
               depth: 6
               value: 1.
               norm_class_idx: 1
               splits:
                  - { var:4, quality:25., le:1.2617401778697968e-01 }
            -
               depth: 7
               value: 1.
               norm_class_idx: 1
            -
               depth: 7
               value: 0.
               norm_class_idx: 0
            -
               depth: 5
               value: 1.
               norm_class_idx: 1
               splits:
                  - { var:11, quality:1.0484793701171875e+03,
                      le:8.0467257648706436e-03 }
            -
               depth: 6
               value: 1.
               norm_class_idx: 1
               splits:
                  - { var:3, quality:2.8545333862304688e+02,
                      le:6.7681443691253662e-01 }
            -
               depth: 7
               value: 1.
               norm_class_idx: 1
            -
               depth: 7
               value: 0.
               norm_class_idx: 0
               splits:
                  - { var:2, quality:1.3672592163085938e+02,
                      le:2.2689953446388245e-01 }
            -
               depth: 8
               value: 1.
               norm_class_idx: 1
            -
               depth: 8
               value: 0.
               norm_class_idx: 0
            -
               depth: 6
               value: 1.
               norm_class_idx: 1
               splits:
                  - { var:0, quality:8.8344653320312500e+02,
                      le:5.1104404032230377e-02 }
            -
               depth: 7
               value: 1.
               norm_class_idx: 1
               splits:
                  - { var:11, quality:8.8914624023437500e+02,
                      le:2.2442169487476349e-02 }
            -
               depth: 8
               value: 1.
               norm_class_idx: 1
            -
               depth: 8
               value: 0.
               norm_class_idx: 0
            -
               depth: 7
               value: 0.
               norm_class_idx: 0
            -
               depth: 1
               value: 0.
               norm_class_idx: 0
               splits:
                  - { var:10, quality:7.5520750000000000e+04,
                      le:2.3113431930541992e+01 }
            -
               depth: 2
               value: 0.
               norm_class_idx: 0
               splits:
                  - { var:0, quality:7.3216929687500000e+04,
                      le:4.7474503517150879e-02 }
            -
               depth: 3
               value: 1.
               norm_class_idx: 1
               splits:
                  - { var:13, quality:2.0000994873046875e+02,
                      le:1.5859155654907227e+00 }
            -
               depth: 4
               value: 1.
               norm_class_idx: 1
               splits:
                  - { var:9, quality:1.9910527038574219e+02,
                      le:2.7725405693054199e+00 }
            -
               depth: 5
               value: 1.
               norm_class_idx: 1
            -
               depth: 5
               value: 1.
               norm_class_idx: 1
            -
               depth: 4
               value: 0.
               norm_class_idx: 0
            -
               depth: 3
               value: 0.
               norm_class_idx: 0
               splits:
                  - { var:12, quality:7.3814296875000000e+04,
                      le:1.5334981679916382e+00 }
            -
               depth: 4
               value: 1.
               norm_class_idx: 1
               splits:
                  - { var:6, quality:4.3011273193359375e+02,
                      le:9.1208831872791052e-04 }
            -
               depth: 5
               value: 1.
               norm_class_idx: 1
               splits:
                  - { var:7, quality:4.0172521972656250e+02,
                      le:7.4131160974502563e-02 }
            -
               depth: 6
               value: 1.
               norm_class_idx: 1
               splits:
                  - { var:0, quality:3.8202597045898438e+02,
                      le:5.5110383778810501e-02 }
            -
               depth: 7
               value: 1.
               norm_class_idx: 1
            -
               depth: 7
               value: 1.
               norm_class_idx: 1
               splits:
                  - { var:0, quality:77., le:5.5121004581451416e-02 }
            -
               depth: 8
               value: 0.
               norm_class_idx: 0
            -
               depth: 8
               value: 1.
               norm_class_idx: 1
            -
               depth: 6
               value: 1.
               norm_class_idx: 1
               splits:
                  - { var:12, quality:2.1571428298950195e+01,
                      le:1.4668503999710083e+00 }
            -
               depth: 7
               value: 1.
               norm_class_idx: 1
            -
               depth: 7
               value: 1.
               norm_class_idx: 1
            -
               depth: 5
               value: 1.
               norm_class_idx: 1
               splits:
                  - { var:9, quality:3.9333332061767578e+01,
                      le:2.4731473922729492e+00 }
            -
               depth: 6
               value: 1.
               norm_class_idx: 1
            -
               depth: 6
               value: 0.
               norm_class_idx: 0
               splits:
                  - { var:12, quality:3.5777778625488281e+01,
                      le:1.4946379661560059e+00 }
            -
               depth: 7
               value: 1.
               norm_class_idx: 1
            -
               depth: 7
               value: 0.
               norm_class_idx: 0
            -
               depth: 4
               value: 0.
               norm_class_idx: 0
               splits:
                  - { var:10, quality:7.3440867187500000e+04,
                      le:1.8405780792236328e+01 }
            -
               depth: 5
               value: 0.
               norm_class_idx: 0
               splits:
                  - { var:3, quality:7.2237515625000000e+04,
                      le:2.2074294090270996e-01 }
            -
               depth: 6
               value: 0.
               norm_class_idx: 0
               splits:
                  - { var:1, quality:7.2238273437500000e+04,
                      le:3.7919819355010986e-02 }
            -
               depth: 7
               value: 1.
               norm_class_idx: 1
            -
               depth: 7
               value: 0.
               norm_class_idx: 0
               splits:
                  - { var:0, quality:7.2231757812500000e+04,
                      le:5.2953824400901794e-02 }
            -
               depth: 8
               value: 0.
               norm_class_idx: 0
            -
               depth: 8
               value: 0.
               norm_class_idx: 0
            -
               depth: 6
               value: 1.
               norm_class_idx: 1
               splits:
                  - { var:7, quality:29., le:1.5985915064811707e-01 }
            -
               depth: 7
               value: 1.
               norm_class_idx: 1
            -
               depth: 7
               value: 0.
               norm_class_idx: 0
            -
               depth: 5
               value: 0.
               norm_class_idx: 0
               splits:
                  - { var:0, quality:1.4046209716796875e+03,
                      le:5.1296710968017578e-02 }
            -
               depth: 6
               value: 1.
               norm_class_idx: 1
               splits:
                  - { var:6, quality:9.2545455932617188e+01,
                      le:1.4286965597420931e-03 }
            -
               depth: 7
               value: 1.
               norm_class_idx: 1
            -
               depth: 7
               value: 1.
               norm_class_idx: 1
            -
               depth: 6
               value: 0.
               norm_class_idx: 0
               splits:
                  - { var:12, quality:1.3365522460937500e+03,
                      le:1.5742592811584473e+00 }
            -
               depth: 7
               value: 1.
               norm_class_idx: 1
            -
               depth: 7
               value: 0.
               norm_class_idx: 0
               splits:
                  - { var:5, quality:1.3451502685546875e+03,
                      le:3.5112774930894375e-03 }
            -
               depth: 8
               value: 0.
               norm_class_idx: 0
            -
               depth: 8
               value: 1.
               norm_class_idx: 1
            -
               depth: 2
               value: 1.
               norm_class_idx: 1
               splits:
                  - { var:4, quality:2.9279577636718750e+03,
                      le:2.9381257295608521e-01 }
            -
               depth: 3
               value: 1.
               norm_class_idx: 1
               splits:
                  - { var:7, quality:2.4818337402343750e+03,
                      le:1.4366894960403442e-01 }
            -
               depth: 4
               value: 1.
               norm_class_idx: 1
               splits:
                  - { var:6, quality:2.4606437988281250e+03,
                      le:2.1011978387832642e-02 }
            -
               depth: 5
               value: 1.
               norm_class_idx: 1
               splits:
                  - { var:6, quality:2.4559455566406250e+03,
                      le:1.8375869840383530e-03 }
            -
               depth: 6
               value: 1.
               norm_class_idx: 1
               splits:
                  - { var:5, quality:1.9392934570312500e+03,
                      le:1.2013640662189573e-04 }
            -
               depth: 7
               value: 0.
               norm_class_idx: 0
            -
               depth: 7
               value: 1.
               norm_class_idx: 1
               splits:
                  - { var:3, quality:1.9369427490234375e+03,
                      le:1.6184847354888916e+00 }
            -
               depth: 8
               value: 1.
               norm_class_idx: 1
            -
               depth: 8
               value: 1.
               norm_class_idx: 1
            -
               depth: 6
               value: 1.
               norm_class_idx: 1
               splits:
                  - { var:8, quality:5.3056823730468750e+02,
                      le:2.0217996835708618e-01 }
            -
               depth: 7
               value: 1.
               norm_class_idx: 1
               splits:
                  - { var:1, quality:6.2581817626953125e+01,
                      le:4.2626075446605682e-02 }
            -
               depth: 8
               value: 1.
               norm_class_idx: 1
            -
               depth: 8
               value: 0.
               norm_class_idx: 0
            -
               depth: 7
               value: 1.
               norm_class_idx: 1
               splits:
                  - { var:7, quality:4.9019482421875000e+02,
                      le:1.2976117432117462e-01 }
            -
               depth: 8
               value: 1.
               norm_class_idx: 1
            -
               depth: 8
               value: 0.
               norm_class_idx: 0
            -
               depth: 5
               value: 1.
               norm_class_idx: 1
            -
               depth: 4
               value: 0.
               norm_class_idx: 0
               splits:
                  - { var:11, quality:3.1266666412353516e+01,
                      le:6.9827563129365444e-03 }
            -
               depth: 5
               value: 1.
               norm_class_idx: 1
            -
               depth: 5
               value: 0.
               norm_class_idx: 0
               splits:
                  - { var:12, quality:2.8068965911865234e+01,
                      le:2.5487041473388672e+00 }
            -
               depth: 6
               value: 0.
               norm_class_idx: 0
               splits:
                  - { var:1, quality:29., le:3.7805404514074326e-02 }
            -
               depth: 7
               value: 1.
               norm_class_idx: 1
            -
               depth: 7
               value: 0.
               norm_class_idx: 0
            -
               depth: 6
               value: 1.
               norm_class_idx: 1
            -
               depth: 3
               value: 0.
               norm_class_idx: 0
               splits:
                  - { var:6, quality:4.9520001220703125e+02,
                      le:1.3164252042770386e-02 }
            -
               depth: 4
               value: 0.
               norm_class_idx: 0
            -
               depth: 4
               value: 1.
               norm_class_idx: 1
      -
         nodes:
            -
               depth: 0
               value: 0.
               norm_class_idx: 0
               splits:
                  - { var:4, quality:9.9715343750000000e+04,
                      le:1.2672254443168640e-01 }
            -
               depth: 1
               value: 1.
               norm_class_idx: 1
               splits:
                  - { var:1, quality:3.4574601562500000e+04,
                      le:2.5742609053850174e-02 }
            -
               depth: 2
               value: 1.
               norm_class_idx: 1
               splits:
                  - { var:0, quality:2.1620480468750000e+04,
                      le:3.2070871442556381e-02 }
            -
               depth: 3
               value: 1.
               norm_class_idx: 1
               splits:
                  - { var:12, quality:2.1312666015625000e+04,
                      le:2.7290256023406982e+00 }
            -
               depth: 4
               value: 1.
               norm_class_idx: 1
               splits:
                  - { var:8, quality:2.1133578125000000e+04,
                      le:8.7203703820705414e-02 }
            -
               depth: 5
               value: 1.
               norm_class_idx: 1
               splits:
                  - { var:5, quality:1.7168046875000000e+04,
                      le:3.8420091732405126e-04 }
            -
               depth: 6
               value: 1.
               norm_class_idx: 1
               splits:
                  - { var:12, quality:1.6990023437500000e+04,
                      le:1.4146013259887695e+00 }
            -
               depth: 7
               value: 1.
               norm_class_idx: 1
               splits:
                  - { var:13, quality:3.4424243164062500e+02,
                      le:1.2910897731781006e+00 }
            -
               depth: 8
               value: 1.
               norm_class_idx: 1
            -
               depth: 8
               value: 1.
               norm_class_idx: 1
            -
               depth: 7
               value: 1.
               norm_class_idx: 1
               splits:
                  - { var:12, quality:1.6646005859375000e+04,
                      le:1.5472891330718994e+00 }
            -
               depth: 8
               value: 1.
               norm_class_idx: 1
            -
               depth: 8
               value: 1.
               norm_class_idx: 1
            -
               depth: 6
               value: 1.
               norm_class_idx: 1
               splits:
                  - { var:11, quality:182., le:3.7490325048565865e-03 }
            -
               depth: 7
               value: 0.
               norm_class_idx: 0
            -
               depth: 7
               value: 1.
               norm_class_idx: 1
            -
               depth: 5
               value: 1.
               norm_class_idx: 1
               splits:
                  - { var:12, quality:3.9663750000000000e+03,
                      le:2.0059199333190918e+00 }
            -
               depth: 6
               value: 1.
               norm_class_idx: 1
               splits:
                  - { var:6, quality:2.5360495605468750e+03,
                      le:8.8281097123399377e-04 }
            -
               depth: 7
               value: 1.
               norm_class_idx: 1
               splits:
                  - { var:13, quality:2.4970061035156250e+03,
                      le:1.2836008071899414e+00 }
            -
               depth: 8
               value: 1.
               norm_class_idx: 1
            -
               depth: 8
               value: 1.
               norm_class_idx: 1
            -
               depth: 7
               value: 1.
               norm_class_idx: 1
               splits:
                  - { var:6, quality:41., le:8.8690657867118716e-04 }
            -
               depth: 8
               value: 0.
               norm_class_idx: 0
            -
               depth: 8
               value: 1.
               norm_class_idx: 1
            -
               depth: 6
               value: 1.
               norm_class_idx: 1
               splits:
                  - { var:4, quality:1.4313596191406250e+03,
                      le:8.2864493131637573e-02 }
            -
               depth: 7
               value: 1.
               norm_class_idx: 1
               splits:
                  - { var:10, quality:3.7696603393554688e+02,
                      le:3.2792411804199219e+01 }
            -
               depth: 8
               value: 1.
               norm_class_idx: 1
            -
               depth: 8
               value: 1.
               norm_class_idx: 1
            -
               depth: 7
               value: 1.
               norm_class_idx: 1
               splits:
                  - { var:5, quality:1.0587904052734375e+03,
                      le:6.8963615922257304e-04 }
            -
               depth: 8
               value: 1.
               norm_class_idx: 1
            -
               depth: 8
               value: 1.
               norm_class_idx: 1
            -
               depth: 4
               value: 1.
               norm_class_idx: 1
               splits:
                  - { var:5, quality:1.8217112731933594e+02,
                      le:4.9577327445149422e-05 }
            -
               depth: 5
               value: 0.
               norm_class_idx: 0
            -
               depth: 5
               value: 1.
               norm_class_idx: 1
               splits:
                  - { var:10, quality:1.7986486816406250e+02,
                      le:4.3963035583496094e+01 }
            -
               depth: 6
               value: 1.
               norm_class_idx: 1
               splits:
                  - { var:1, quality:33., le:2.4786524474620819e-02 }
            -
               depth: 7
               value: 1.
               norm_class_idx: 1
            -
               depth: 7
               value: 0.
               norm_class_idx: 0
            -
               depth: 6
               value: 1.
               norm_class_idx: 1
            -
               depth: 3
               value: 1.
               norm_class_idx: 1
               splits:
                  - { var:12, quality:3.3714337158203125e+02,
                      le:2.1169199943542480e+00 }
            -
               depth: 4
               value: 1.
               norm_class_idx: 1
               splits:
                  - { var:0, quality:3.1339129638671875e+02,
                      le:3.2213434576988220e-02 }
            -
               depth: 5
               value: 1.
               norm_class_idx: 1
               splits:
                  - { var:11, quality:46., le:6.4755100756883621e-03 }
            -
               depth: 6
               value: 0.
               norm_class_idx: 0
            -
               depth: 6
               value: 1.
               norm_class_idx: 1
            -
               depth: 5
               value: 1.
               norm_class_idx: 1
            -
               depth: 4
               value: 0.
               norm_class_idx: 0
               splits:
                  - { var:3, quality:4.2266666412353516e+01,
                      le:7.1296894550323486e-01 }
            -
               depth: 5
               value: 1.
               norm_class_idx: 1
            -
               depth: 5
               value: 0.
               norm_class_idx: 0
               splits:
                  - { var:2, quality:30., le:2.6859956979751587e-01 }
            -
               depth: 6
               value: 1.
               norm_class_idx: 1
            -
               depth: 6
               value: 0.
               norm_class_idx: 0
            -
               depth: 2
               value: 0.
               norm_class_idx: 0
               splits:
                  - { var:3, quality:1.6682787109375000e+04,
                      le:1.0572166442871094e+00 }
            -
               depth: 3
               value: 1.
               norm_class_idx: 1
               splits:
                  - { var:5, quality:1.4431803710937500e+04,
                      le:1.4982096035964787e-04 }
            -
               depth: 4
               value: 0.
               norm_class_idx: 0
               splits:
                  - { var:11, quality:4.4849521484375000e+03,
                      le:1.0357789695262909e-02 }
            -
               depth: 5
               value: 1.
               norm_class_idx: 1
               splits:
                  - { var:2, quality:2.0229629516601562e+02,
                      le:3.6048209667205811e-01 }
            -
               depth: 6
               value: 1.
               norm_class_idx: 1
            -
               depth: 6
               value: 1.
               norm_class_idx: 1
               splits:
                  - { var:2, quality:27., le:8.3492910861968994e-01 }
            -
               depth: 7
               value: 0.
               norm_class_idx: 0
            -
               depth: 7
               value: 1.
               norm_class_idx: 1
            -
               depth: 5
               value: 0.
               norm_class_idx: 0
               splits:
                  - { var:0, quality:4.3735151367187500e+03,
                      le:3.9906837046146393e-02 }
            -
               depth: 6
               value: 1.
               norm_class_idx: 1
            -
               depth: 6
               value: 0.
               norm_class_idx: 0
               splits:
                  - { var:10, quality:4.3534765625000000e+03,
                      le:1.2611967086791992e+01 }
            -
               depth: 7
               value: 0.
               norm_class_idx: 0
               splits:
                  - { var:11, quality:4.3505458984375000e+03,
                      le:1.3541783206164837e-02 }
            -
               depth: 8
               value: 0.
               norm_class_idx: 0
            -
               depth: 8
               value: 1.
               norm_class_idx: 1
            -
               depth: 7
               value: 0.
               norm_class_idx: 0
               splits:
                  - { var:8, quality:4.6148571014404297e+01,
                      le:1.1532941460609436e-01 }
            -
               depth: 8
               value: 0.
               norm_class_idx: 0
            -
               depth: 8
               value: 1.
               norm_class_idx: 1
            -
               depth: 4
               value: 1.
               norm_class_idx: 1
               splits:
                  - { var:9, quality:1.0466746093750000e+04,
                      le:1.9702227115631104e+00 }
            -
               depth: 5
               value: 0.
               norm_class_idx: 0
               splits:
                  - { var:5, quality:1.7661305236816406e+02,
                      le:3.4624981344677508e-04 }
            -
               depth: 6
               value: 0.
               norm_class_idx: 0
               splits:
                  - { var:11, quality:1.2867771911621094e+02,
                      le:1.4714132063090801e-02 }
            -
               depth: 7
               value: 0.
               norm_class_idx: 0
               splits:
                  - { var:0, quality:1.2514875793457031e+02,
                      le:3.9192520081996918e-02 }
            -
               depth: 8
               value: 1.
               norm_class_idx: 1
            -
               depth: 8
               value: 0.
               norm_class_idx: 0
            -
               depth: 7
               value: 1.
               norm_class_idx: 1
               splits:
                  - { var:8, quality:2.9405000686645508e+01,
                      le:1.0540075600147247e-01 }
            -
               depth: 8
               value: 0.
               norm_class_idx: 0
            -
               depth: 8
               value: 1.
               norm_class_idx: 1
            -
               depth: 6
               value: 1.
               norm_class_idx: 1
               splits:
                  - { var:1, quality:72., le:4.3036654591560364e-02 }
            -
               depth: 7
               value: 1.
               norm_class_idx: 1
            -
               depth: 7
               value: 0.
               norm_class_idx: 0
            -
               depth: 5
               value: 1.
               norm_class_idx: 1
               splits:
                  - { var:13, quality:1.0351693359375000e+04,
                      le:1.4070870876312256e+00 }
            -
               depth: 6
               value: 1.
               norm_class_idx: 1
               splits:
                  - { var:3, quality:9.9755371093750000e+03,
                      le:6.2568914890289307e-01 }
            -
               depth: 7
               value: 1.
               norm_class_idx: 1
               splits:
                  - { var:9, quality:9.9708779296875000e+03,
                      le:2.8818745613098145e+00 }
            -
               depth: 8
               value: 1.
               norm_class_idx: 1
            -
               depth: 8
               value: 1.
               norm_class_idx: 1
            -
               depth: 7
               value: 1.
               norm_class_idx: 1
            -
               depth: 6
               value: 1.
               norm_class_idx: 1
               splits:
                  - { var:10, quality:4.0210684204101562e+02,
                      le:6.4121141433715820e+00 }
            -
               depth: 7
               value: 0.
               norm_class_idx: 0
               splits:
                  - { var:1, quality:2.1851852416992188e+01,
                      le:3.0743531882762909e-02 }
            -
               depth: 8
               value: 1.
               norm_class_idx: 1
            -
               depth: 8
               value: 0.
               norm_class_idx: 0
            -
               depth: 7
               value: 1.
               norm_class_idx: 1
               splits:
                  - { var:11, quality:3.8782919311523438e+02,
                      le:2.0968567579984665e-02 }
            -
               depth: 8
               value: 1.
               norm_class_idx: 1
            -
               depth: 8
               value: 1.
               norm_class_idx: 1
            -
               depth: 3
               value: 0.
               norm_class_idx: 0
               splits:
                  - { var:13, quality:9.5070195312500000e+03,
                      le:1.1607317924499512e+00 }
            -
               depth: 4
               value: 1.
               norm_class_idx: 1
               splits:
                  - { var:13, quality:1.1749819335937500e+03,
                      le:1.1390901803970337e+00 }
            -
               depth: 5
               value: 1.
               norm_class_idx: 1
               splits:
                  - { var:3, quality:1.1531419677734375e+03,
                      le:1.7793774604797363e+00 }
            -
               depth: 6
               value: 1.
               norm_class_idx: 1
               splits:
                  - { var:6, quality:1.4167216491699219e+02,
                      le:7.0278218481689692e-04 }
            -
               depth: 7
               value: 1.
               norm_class_idx: 1
               splits:
                  - { var:5, quality:1.1641635894775391e+02,
                      le:5.7299830950796604e-04 }
            -
               depth: 8
               value: 0.
               norm_class_idx: 0
            -
               depth: 8
               value: 1.
               norm_class_idx: 1
            -
               depth: 7
               value: 0.
               norm_class_idx: 0
               splits:
                  - { var:1, quality:3.6055557250976562e+01,
                      le:3.0916554853320122e-02 }
            -
               depth: 8
               value: 1.
               norm_class_idx: 1
            -
               depth: 8
               value: 0.
               norm_class_idx: 0
            -
               depth: 6
               value: 1.
               norm_class_idx: 1
            -
               depth: 5
               value: 1.
               norm_class_idx: 1
               splits:
