%YAML:1.0
---
opencv_ml_rtrees:
   format: 3
   is_classifier: 1
   var_all: 15
   var_count: 14
   ord_var_count: 14
   cat_var_count: 1
   training_params:
      use_surrogates: 0
      max_categories: 10
      regression_accuracy: 0.
      max_depth: 8
      min_sample_count: 20
      cross_validation_folds: 0
      priors: !!opencv-matrix
         rows: 2
         cols: 1
         dt: f
         data: [ 1., 1. ]
      nactive_vars: 5
   global_var_idx: 1
   var_idx: [ 0, 1, 2, 3, 4, 5, 6, 7, 8, 9, 10, 11, 12, 13 ]
   var_type: [ 0, 0, 0, 0, 0, 0, 0, 0, 0, 0, 0, 0, 0, 0, 1 ]
   cat_ofs: [ 0, 0, 0, 0, 0, 0, 0, 0, 0, 0, 0, 0, 0, 0, 0, 0, 0, 0, 0, 0,
       0, 0, 0, 0, 0, 0, 0, 0 ]
   class_labels: [ 0, 1 ]
   missing_subst: [ 0., 0., 0., 0., 0., 0., 0., 0., 0., 0., 0., 0., 0.,
       0., 0. ]
   oob_error: 0.
   ntrees: 100
   trees:
      -
         nodes:
            -
               depth: 0
               value: 0.
               norm_class_idx: 0
               splits:
                  - { var:10, quality:6.4129042968750000e+04,
                      le:3.8666206359863281e+01 }
            -
               depth: 1
               value: 0.
               norm_class_idx: 0
               splits:
                  - { var:1, quality:5.9774617187500000e+04,
                      le:1.9125636667013168e-02 }
            -
               depth: 2
               value: 0.
               norm_class_idx: 0
               splits:
                  - { var:9, quality:2.6271633300781250e+03,
                      le:2.0542030334472656e+00 }
            -
               depth: 3
               value: 0.
               norm_class_idx: 0
               splits:
                  - { var:11, quality:1.7927558593750000e+03,
                      le:5.2537489682435989e-03 }
            -
               depth: 4
               value: 1.
               norm_class_idx: 1
               splits:
                  - { var:3, quality:2.1718182373046875e+02,
                      le:4.7543072141706944e-03 }
            -
               depth: 5
               value: 1.
               norm_class_idx: 1
            -
               depth: 5
               value: 1.
               norm_class_idx: 1
            -
               depth: 4
               value: 0.
               norm_class_idx: 0
               splits:
                  - { var:0, quality:1.8098393554687500e+03,
                      le:2.0235968753695488e-02 }
            -
               depth: 5
               value: 0.
               norm_class_idx: 0
               splits:
                  - { var:12, quality:1.7292703857421875e+03,
                      le:1.9896203279495239e+00 }
            -
               depth: 6
               value: 0.
               norm_class_idx: 0
               splits:
                  - { var:0, quality:1.7305557861328125e+03,
                      le:1.7792306840419769e-02 }
            -
               depth: 7
               value: 1.
               norm_class_idx: 1
            -
               depth: 7
               value: 0.
               norm_class_idx: 0
               splits:
                  - { var:4, quality:1.7485166015625000e+03,
                      le:4.9702029675245285e-02 }
            -
               depth: 8
               value: 0.
               norm_class_idx: 0
            -
               depth: 8
               value: 1.
               norm_class_idx: 1
            -
               depth: 6
               value: 1.
               norm_class_idx: 1
               splits:
                  - { var:7, quality:3.8666667938232422e+01,
                      le:2.6196047663688660e-02 }
            -
               depth: 7
               value: 1.
               norm_class_idx: 1
            -
               depth: 7
               value: 1.
               norm_class_idx: 1
            -
               depth: 5
               value: 1.
               norm_class_idx: 1
               splits:
                  - { var:9, quality:1.5918994140625000e+02,
                      le:2.0526590347290039e+00 }
            -
               depth: 6
               value: 1.
               norm_class_idx: 1
               splits:
                  - { var:13, quality:1.5722222900390625e+02,
                      le:1.5070049762725830e+00 }
            -
               depth: 7
               value: 1.
               norm_class_idx: 1
               splits:
                  - { var:8, quality:5.3975383758544922e+01,
                      le:6.3674122095108032e-02 }
            -
               depth: 8
               value: 1.
               norm_class_idx: 1
            -
               depth: 8
               value: 0.
               norm_class_idx: 0
            -
               depth: 7
               value: 1.
               norm_class_idx: 1
            -
               depth: 6
               value: 0.
               norm_class_idx: 0
            -
               depth: 3
               value: 1.
               norm_class_idx: 1
               splits:
                  - { var:11, quality:1.4442817382812500e+03,
                      le:5.3349598310887814e-03 }
            -
               depth: 4
               value: 1.
               norm_class_idx: 1
            -
               depth: 4
               value: 0.
               norm_class_idx: 0
               splits:
                  - { var:5, quality:4.4720755004882812e+02,
                      le:1.1480668035801500e-04 }
            -
               depth: 5
               value: 0.
               norm_class_idx: 0
               splits:
                  - { var:0, quality:3.6405334472656250e+02,
                      le:2.0460037514567375e-02 }
            -
               depth: 6
               value: 0.
               norm_class_idx: 0
               splits:
                  - { var:0, quality:3.0875860595703125e+02,
                      le:1.8090575933456421e-02 }
            -
               depth: 7
               value: 1.
               norm_class_idx: 1
            -
               depth: 7
               value: 0.
               norm_class_idx: 0
               splits:
                  - { var:4, quality:3.1305789184570312e+02,
                      le:5.0272360444068909e-02 }
            -
               depth: 8
               value: 0.
               norm_class_idx: 0
            -
               depth: 8
               value: 1.
               norm_class_idx: 1
            -
               depth: 6
               value: 1.
               norm_class_idx: 1
               splits:
                  - { var:8, quality:1.1328384399414062e+02,
                      le:6.4756840467453003e-02 }
            -
               depth: 7
               value: 1.
               norm_class_idx: 1
               splits:
                  - { var:4, quality:5.7571430206298828e+01,
                      le:4.9257695674896240e-02 }
            -
               depth: 8
               value: 1.
               norm_class_idx: 1
            -
               depth: 8
               value: 1.
               norm_class_idx: 1
            -
               depth: 7
               value: 0.
               norm_class_idx: 0
               splits:
                  - { var:1, quality:7.4662338256835938e+01,
                      le:1.8263142555952072e-02 }
            -
               depth: 8
               value: 1.
               norm_class_idx: 1
            -
               depth: 8
               value: 0.
               norm_class_idx: 0
            -
               depth: 5
               value: 1.
               norm_class_idx: 1
               splits:
                  - { var:1, quality:1.3203381347656250e+02,
                      le:1.6393937170505524e-02 }
            -
               depth: 6
               value: 1.
               norm_class_idx: 1
               splits:
                  - { var:10, quality:2.2748718261718750e+01,
                      le:2.0279338836669922e+01 }
            -
               depth: 7
               value: 0.
               norm_class_idx: 0
            -
               depth: 7
               value: 1.
               norm_class_idx: 1
            -
               depth: 6
               value: 1.
               norm_class_idx: 1
               splits:
                  - { var:1, quality:1.2026667022705078e+02,
                      le:1.8704965710639954e-02 }
            -
               depth: 7
               value: 1.
               norm_class_idx: 1
            -
               depth: 7
               value: 1.
               norm_class_idx: 1
               splits:
                  - { var:7, quality:2.8250000000000000e+01,
                      le:4.2704444378614426e-02 }
            -
               depth: 8
               value: 1.
               norm_class_idx: 1
            -
               depth: 8
               value: 0.
               norm_class_idx: 0
            -
               depth: 2
               value: 0.
               norm_class_idx: 0
               splits:
                  - { var:0, quality:5.8209488281250000e+04,
                      le:4.8172965645790100e-02 }
            -
               depth: 3
               value: 0.
               norm_class_idx: 0
               splits:
                  - { var:4, quality:1.6635750000000000e+04,
                      le:1.2028032541275024e-01 }
            -
               depth: 4
               value: 0.
               norm_class_idx: 0
               splits:
                  - { var:9, quality:1.6617130859375000e+04,
                      le:2.6483626365661621e+00 }
            -
               depth: 5
               value: 0.
               norm_class_idx: 0
               splits:
                  - { var:0, quality:1.6459117187500000e+04,
                      le:3.8311090320348740e-02 }
            -
               depth: 6
               value: 0.
               norm_class_idx: 0
               splits:
                  - { var:13, quality:9.6915507812500000e+03,
                      le:1.4471015930175781e+00 }
            -
               depth: 7
               value: 0.
               norm_class_idx: 0
               splits:
                  - { var:11, quality:9.1259179687500000e+03,
                      le:1.7613129690289497e-02 }
            -
               depth: 8
               value: 0.
               norm_class_idx: 0
            -
               depth: 8
               value: 0.
               norm_class_idx: 0
            -
               depth: 7
               value: 0.
               norm_class_idx: 0
               splits:
                  - { var:9, quality:8.6683923339843750e+02,
                      le:2.0718362331390381e+00 }
            -
               depth: 8
               value: 0.
               norm_class_idx: 0
            -
               depth: 8
               value: 1.
               norm_class_idx: 1
            -
               depth: 6
               value: 0.
               norm_class_idx: 0
               splits:
                  - { var:11, quality:7.1405761718750000e+03,
                      le:5.9839403256773949e-03 }
            -
               depth: 7
               value: 1.
               norm_class_idx: 1
            -
               depth: 7
               value: 0.
               norm_class_idx: 0
               splits:
                  - { var:1, quality:7.1517265625000000e+03,
                      le:2.9943447560071945e-02 }
            -
               depth: 8
               value: 1.
               norm_class_idx: 1
            -
               depth: 8
               value: 0.
               norm_class_idx: 0
            -
               depth: 5
               value: 1.
               norm_class_idx: 1
               splits:
                  - { var:12, quality:3.9714880371093750e+02,
                      le:2.3264775276184082e+00 }
            -
               depth: 6
               value: 1.
               norm_class_idx: 1
               splits:
                  - { var:5, quality:3.2809552001953125e+02,
                      le:1.0114768519997597e-04 }
            -
               depth: 7
               value: 0.
               norm_class_idx: 0
            -
               depth: 7
               value: 1.
               norm_class_idx: 1
               splits:
                  - { var:4, quality:3.2782052612304688e+02,
                      le:1.1527656018733978e-01 }
            -
               depth: 8
               value: 1.
               norm_class_idx: 1
            -
               depth: 8
               value: 1.
               norm_class_idx: 1
            -
               depth: 6
               value: 0.
               norm_class_idx: 0
            -
               depth: 4
               value: 1.
               norm_class_idx: 1
               splits:
                  - { var:4, quality:5.7707330322265625e+02,
                      le:1.3856831192970276e-01 }
            -
               depth: 5
               value: 1.
               norm_class_idx: 1
               splits:
                  - { var:12, quality:3.6306414794921875e+02,
                      le:3.0267405509948730e+00 }
            -
               depth: 6
               value: 1.
               norm_class_idx: 1
               splits:
                  - { var:0, quality:3.5847030639648438e+02,
                      le:4.7444161027669907e-02 }
            -
               depth: 7
               value: 1.
               norm_class_idx: 1
               splits:
                  - { var:13, quality:3.5577346801757812e+02,
                      le:1.5669803619384766e+00 }
            -
               depth: 8
               value: 1.
               norm_class_idx: 1
            -
               depth: 8
               value: 1.
               norm_class_idx: 1
            -
               depth: 7
               value: 1.
               norm_class_idx: 1
            -
               depth: 6
               value: 0.
               norm_class_idx: 0
            -
               depth: 5
               value: 0.
               norm_class_idx: 0
               splits:
                  - { var:1, quality:3.1231616210937500e+02,
                      le:3.8578599691390991e-02 }
            -
               depth: 6
               value: 1.
               norm_class_idx: 1
               splits:
                  - { var:12, quality:8.5023529052734375e+01,
                      le:3.0791954994201660e+00 }
            -
               depth: 7
               value: 1.
               norm_class_idx: 1
               splits:
                  - { var:4, quality:8.3142860412597656e+01,
                      le:1.5322339534759521e-01 }
            -
               depth: 8
               value: 1.
               norm_class_idx: 1
            -
               depth: 8
               value: 1.
               norm_class_idx: 1
            -
               depth: 7
               value: 0.
               norm_class_idx: 0
            -
               depth: 6
               value: 0.
               norm_class_idx: 0
               splits:
                  - { var:4, quality:2.8582858276367188e+02,
                      le:1.4405374228954315e-01 }
            -
               depth: 7
               value: 0.
               norm_class_idx: 0
               splits:
                  - { var:12, quality:2.7406741333007812e+02,
                      le:2.1695652008056641e+00 }
            -
               depth: 8
               value: 1.
               norm_class_idx: 1
            -
               depth: 8
               value: 0.
               norm_class_idx: 0
            -
               depth: 7
               value: 1.
               norm_class_idx: 1
            -
               depth: 3
               value: 0.
               norm_class_idx: 0
               splits:
                  - { var:5, quality:4.2014558593750000e+04,
                      le:9.8499152809381485e-03 }
            -
               depth: 4
               value: 0.
               norm_class_idx: 0
               splits:
                  - { var:10, quality:4.2017496093750000e+04,
                      le:3.3344970703125000e+01 }
            -
               depth: 5
               value: 0.
               norm_class_idx: 0
               splits:
                  - { var:7, quality:4.1498437500000000e+04,
                      le:1.1643248796463013e-01 }
            -
               depth: 6
               value: 0.
               norm_class_idx: 0
               splits:
                  - { var:8, quality:4.0577248535156250e+03,
                      le:2.1044585108757019e-01 }
            -
               depth: 7
               value: 0.
               norm_class_idx: 0
               splits:
                  - { var:5, quality:4.0553457031250000e+03,
                      le:1.9620195962488651e-03 }
            -
               depth: 8
               value: 0.
               norm_class_idx: 0
            -
               depth: 8
               value: 1.
               norm_class_idx: 1
            -
               depth: 7
               value: 1.
               norm_class_idx: 1
               splits:
                  - { var:6, quality:4.9575710296630859e+01,
                      le:1.5067234635353088e-02 }
            -
               depth: 8
               value: 1.
               norm_class_idx: 1
            -
               depth: 8
               value: 0.
               norm_class_idx: 0
            -
               depth: 6
               value: 0.
               norm_class_idx: 0
               splits:
                  - { var:0, quality:3.7490285156250000e+04,
                      le:4.9448981881141663e-02 }
            -
               depth: 7
               value: 1.
               norm_class_idx: 1
            -
               depth: 7
               value: 0.
               norm_class_idx: 0
               splits:
                  - { var:1, quality:3.7489765625000000e+04,
                      le:4.1929818689823151e-02 }
            -
               depth: 8
               value: 0.
               norm_class_idx: 0
            -
               depth: 8
               value: 0.
               norm_class_idx: 0
            -
               depth: 5
               value: 0.
               norm_class_idx: 0
               splits:
                  - { var:9, quality:5.5978875732421875e+02,
                      le:2.8703799247741699e+00 }
            -
               depth: 6
               value: 0.
               norm_class_idx: 0
               splits:
                  - { var:12, quality:5.7794720458984375e+02,
                      le:2.7492990493774414e+00 }
            -
               depth: 7
               value: 1.
               norm_class_idx: 1
               splits:
                  - { var:3, quality:36., le:4.3531466275453568e-02 }
            -
               depth: 8
               value: 1.
               norm_class_idx: 1
            -
               depth: 8
               value: 0.
               norm_class_idx: 0
            -
               depth: 7
               value: 0.
               norm_class_idx: 0
               splits:
                  - { var:8, quality:5.5909521484375000e+02,
                      le:2.3874664306640625e-01 }
            -
               depth: 8
               value: 0.
               norm_class_idx: 0
            -
               depth: 8
               value: 0.
               norm_class_idx: 0
            -
               depth: 6
               value: 1.
               norm_class_idx: 1
               splits:
                  - { var:12, quality:3.6200000762939453e+01,
                      le:2.7780861854553223e+00 }
            -
               depth: 7
               value: 1.
               norm_class_idx: 1
            -
               depth: 7
               value: 0.
               norm_class_idx: 0
            -
               depth: 4
               value: 1.
               norm_class_idx: 1
            -
               depth: 1
               value: 1.
               norm_class_idx: 1
               splits:
                  - { var:5, quality:5.8421547851562500e+03,
                      le:1.1428875586716458e-04 }
            -
               depth: 2
               value: 0.
               norm_class_idx: 0
               splits:
                  - { var:11, quality:3.6672155761718750e+02,
                      le:6.5259076654911041e-03 }
            -
               depth: 3
               value: 1.
               norm_class_idx: 1
               splits:
                  - { var:1, quality:2.2024571228027344e+02,
                      le:2.6498423889279366e-02 }
            -
               depth: 4
               value: 1.
               norm_class_idx: 1
               splits:
                  - { var:9, quality:1.9014285278320312e+02,
                      le:1.9499344825744629e+00 }
            -
               depth: 5
               value: 1.
               norm_class_idx: 1
            -
               depth: 5
               value: 1.
               norm_class_idx: 1
            -
               depth: 4
               value: 0.
               norm_class_idx: 0
               splits:
                  - { var:9, quality:34., le:2.5372657775878906e+00 }
            -
               depth: 5
               value: 1.
               norm_class_idx: 1
            -
               depth: 5
               value: 0.
               norm_class_idx: 0
            -
               depth: 3
               value: 0.
               norm_class_idx: 0
               splits:
                  - { var:9, quality:2.1750994873046875e+02,
                      le:2.4182150363922119e+00 }
            -
               depth: 4
               value: 1.
               norm_class_idx: 1
               splits:
                  - { var:9, quality:2.8936454772949219e+01,
                      le:2.0792508125305176e+00 }
            -
               depth: 5
               value: 0.
               norm_class_idx: 0
            -
               depth: 5
               value: 1.
               norm_class_idx: 1
               splits:
                  - { var:12, quality:2.1095237731933594e+01,
                      le:1.4628340005874634e+00 }
            -
               depth: 6
               value: 0.
               norm_class_idx: 0
            -
               depth: 6
               value: 1.
               norm_class_idx: 1
               splits:
                  - { var:1, quality:20., le:1.4650111086666584e-02 }
            -
               depth: 7
               value: 0.
               norm_class_idx: 0
            -
               depth: 7
               value: 1.
               norm_class_idx: 1
            -
               depth: 4
               value: 0.
               norm_class_idx: 0
               splits:
                  - { var:6, quality:1.9939999389648438e+02,
                      le:9.7430194728076458e-05 }
            -
               depth: 5
               value: 0.
               norm_class_idx: 0
            -
               depth: 5
               value: 0.
               norm_class_idx: 0
            -
               depth: 2
               value: 1.
               norm_class_idx: 1
               splits:
                  - { var:10, quality:5.6624135742187500e+03,
                      le:4.0895877838134766e+01 }
            -
               depth: 3
               value: 1.
               norm_class_idx: 1
               splits:
                  - { var:7, quality:2.7196069335937500e+02,
                      le:9.9280878901481628e-02 }
            -
               depth: 4
               value: 1.
               norm_class_idx: 1
               splits:
                  - { var:1, quality:2.1373320007324219e+02,
                      le:1.7507303506135941e-02 }
            -
               depth: 5
               value: 0.
               norm_class_idx: 0
            -
               depth: 5
               value: 1.
               norm_class_idx: 1
               splits:
                  - { var:0, quality:2.0615567016601562e+02,
                      le:3.8104206323623657e-02 }
            -
               depth: 6
               value: 1.
               norm_class_idx: 1
               splits:
                  - { var:4, quality:1.5409524536132812e+02,
                      le:1.1006849259138107e-01 }
            -
               depth: 7
               value: 1.
               norm_class_idx: 1
            -
               depth: 7
               value: 1.
               norm_class_idx: 1
               splits:
                  - { var:1, quality:21., le:2.7336355298757553e-02 }
            -
               depth: 8
               value: 0.
               norm_class_idx: 0
            -
               depth: 8
               value: 1.
               norm_class_idx: 1
            -
               depth: 6
               value: 1.
               norm_class_idx: 1
               splits:
                  - { var:8, quality:5.7299999237060547e+01,
                      le:1.3131837546825409e-01 }
            -
               depth: 7
               value: 0.
               norm_class_idx: 0
            -
               depth: 7
               value: 1.
               norm_class_idx: 1
               splits:
                  - { var:5, quality:5.6035713195800781e+01,
                      le:3.0653053545393050e-04 }
            -
               depth: 8
               value: 0.
               norm_class_idx: 0
            -
               depth: 8
               value: 1.
               norm_class_idx: 1
            -
               depth: 4
               value: 0.
               norm_class_idx: 0
               splits:
                  - { var:13, quality:9.0574714660644531e+01,
                      le:9.6718472242355347e-01 }
            -
               depth: 5
               value: 1.
               norm_class_idx: 1
            -
               depth: 5
               value: 0.
               norm_class_idx: 0
               splits:
                  - { var:7, quality:8.1596382141113281e+01,
                      le:1.5230785310268402e-01 }
            -
               depth: 6
               value: 0.
               norm_class_idx: 0
               splits:
                  - { var:9, quality:83., le:2.5917401313781738e+00 }
            -
               depth: 7
               value: 1.
               norm_class_idx: 1
            -
               depth: 7
               value: 0.
               norm_class_idx: 0
            -
               depth: 6
               value: 1.
               norm_class_idx: 1
            -
               depth: 3
               value: 1.
               norm_class_idx: 1
               splits:
                  - { var:12, quality:5.4758466796875000e+03,
                      le:2.8663887977600098e+00 }
            -
               depth: 4
               value: 1.
               norm_class_idx: 1
               splits:
                  - { var:12, quality:5.2411416015625000e+03,
                      le:2.8212327957153320e+00 }
            -
               depth: 5
               value: 1.
               norm_class_idx: 1
               splits:
                  - { var:13, quality:5.1870405273437500e+03,
                      le:1.2369093894958496e+00 }
            -
               depth: 6
               value: 1.
               norm_class_idx: 1
               splits:
                  - { var:10, quality:4.9910029296875000e+03,
                      le:4.8546806335449219e+01 }
            -
               depth: 7
               value: 1.
               norm_class_idx: 1
               splits:
                  - { var:10, quality:647., le:4.8530433654785156e+01 }
            -
               depth: 8
               value: 1.
               norm_class_idx: 1
            -
               depth: 8
               value: 0.
               norm_class_idx: 0
            -
               depth: 7
               value: 1.
               norm_class_idx: 1
            -
               depth: 6
               value: 1.
               norm_class_idx: 1
               splits:
                  - { var:4, quality:1.9624243164062500e+02,
                      le:1.0886948555707932e-01 }
            -
               depth: 7
               value: 1.
               norm_class_idx: 1
            -
               depth: 7
               value: 1.
               norm_class_idx: 1
               splits:
                  - { var:13, quality:33., le:1.2449183464050293e+00 }
            -
               depth: 8
               value: 0.
               norm_class_idx: 0
            -
               depth: 8
               value: 1.
               norm_class_idx: 1
            -
               depth: 5
               value: 1.
               norm_class_idx: 1
               splits:
                  - { var:12, quality:58., le:2.8223404884338379e+00 }
            -
               depth: 6
               value: 0.
               norm_class_idx: 0
            -
               depth: 6
               value: 1.
               norm_class_idx: 1
            -
               depth: 4
               value: 1.
               norm_class_idx: 1
               splits:
                  - { var:10, quality:2.6618643188476562e+02,
                      le:4.6710533142089844e+01 }
            -
               depth: 5
               value: 0.
               norm_class_idx: 0
               splits:
                  - { var:6, quality:4.6047618865966797e+01,
                      le:1.7301731277257204e-03 }
            -
               depth: 6
               value: 0.
               norm_class_idx: 0
               splits:
                  - { var:13, quality:42., le:1.3883633613586426e+00 }
            -
               depth: 7
               value: 0.
               norm_class_idx: 0
            -
               depth: 7
               value: 1.
               norm_class_idx: 1
            -
               depth: 6
               value: 1.
               norm_class_idx: 1
            -
               depth: 5
               value: 1.
               norm_class_idx: 1
      -
         nodes:
            -
               depth: 0
               value: 0.
               norm_class_idx: 0
               splits:
                  - { var:0, quality:5.8359554687500000e+04,
                      le:4.8275969922542572e-02 }
            -
               depth: 1
               value: 0.
               norm_class_idx: 0
               splits:
                  - { var:9, quality:2.2247253906250000e+04,
                      le:2.6285653114318848e+00 }
            -
               depth: 2
               value: 0.
               norm_class_idx: 0
               splits:
                  - { var:11, quality:1.9599443359375000e+04,
                      le:5.3830286487936974e-03 }
            -
               depth: 3
               value: 1.
               norm_class_idx: 1
               splits:
                  - { var:4, quality:2.2981857910156250e+03,
                      le:1.0609195381402969e-01 }
            -
               depth: 4
               value: 1.
               norm_class_idx: 1
               splits:
                  - { var:9, quality:1.9551384277343750e+03,
                      le:1.9587765932083130e+00 }
            -
               depth: 5
               value: 1.
               norm_class_idx: 1
               splits:
                  - { var:8, quality:6.3966918945312500e+01,
                      le:4.6082466840744019e-02 }
            -
               depth: 6
               value: 1.
               norm_class_idx: 1
               splits:
                  - { var:6, quality:37., le:1.4764466322958469e-04 }
            -
               depth: 7
               value: 1.
               norm_class_idx: 1
            -
               depth: 7
               value: 0.
               norm_class_idx: 0
            -
               depth: 6
               value: 0.
               norm_class_idx: 0
               splits:
                  - { var:10, quality:3.3062500000000000e+01,
                      le:2.1563850402832031e+01 }
            -
               depth: 7
               value: 0.
               norm_class_idx: 0
               splits:
                  - { var:5, quality:32., le:2.1454095985973254e-05 }
            -
               depth: 8
               value: 0.
               norm_class_idx: 0
            -
               depth: 8
               value: 1.
               norm_class_idx: 1
            -
               depth: 7
               value: 1.
               norm_class_idx: 1
            -
               depth: 5
               value: 1.
               norm_class_idx: 1
               splits:
                  - { var:12, quality:1.9189418945312500e+03,
                      le:1.8413264751434326e+00 }
            -
               depth: 6
               value: 1.
               norm_class_idx: 1
               splits:
                  - { var:10, quality:1.6352941894531250e+02,
                      le:1.3745669364929199e+01 }
            -
               depth: 7
               value: 0.
               norm_class_idx: 0
            -
               depth: 7
               value: 1.
               norm_class_idx: 1
            -
               depth: 6
               value: 1.
               norm_class_idx: 1
            -
               depth: 4
               value: 0.
               norm_class_idx: 0
               splits:
                  - { var:0, quality:4.7630383300781250e+02,
                      le:3.6018483340740204e-02 }
            -
               depth: 5
               value: 0.
               norm_class_idx: 0
               splits:
                  - { var:3, quality:4.1700479125976562e+02,
                      le:3.9478833787143230e-03 }
            -
               depth: 6
               value: 0.
               norm_class_idx: 0
               splits:
                  - { var:4, quality:417., le:1.1000662297010422e-01 }
            -
               depth: 7
               value: 0.
               norm_class_idx: 0
            -
               depth: 7
               value: 1.
               norm_class_idx: 1
            -
               depth: 6
               value: 1.
               norm_class_idx: 1
            -
               depth: 5
               value: 1.
               norm_class_idx: 1
               splits:
                  - { var:4, quality:6.5117645263671875e+01,
                      le:1.4072644710540771e-01 }
            -
               depth: 6
               value: 1.
               norm_class_idx: 1
               splits:
                  - { var:5, quality:6.6029853820800781e+01,
                      le:3.4007607609964907e-05 }
            -
               depth: 7
               value: 0.
               norm_class_idx: 0
            -
               depth: 7
               value: 1.
               norm_class_idx: 1
               splits:
                  - { var:12, quality:67., le:2.8066411018371582e+00 }
            -
               depth: 8
               value: 1.
               norm_class_idx: 1
            -
               depth: 8
               value: 0.
               norm_class_idx: 0
            -
               depth: 6
               value: 0.
               norm_class_idx: 0
            -
               depth: 3
               value: 0.
               norm_class_idx: 0
               splits:
                  - { var:10, quality:1.8325753906250000e+04,
                      le:3.8829322814941406e+01 }
            -
               depth: 4
               value: 0.
               norm_class_idx: 0
               splits:
                  - { var:4, quality:1.8074427734375000e+04,
                      le:1.2020654976367950e-01 }
            -
               depth: 5
               value: 0.
               norm_class_idx: 0
               splits:
                  - { var:1, quality:1.8012884765625000e+04,
                      le:2.6227660477161407e-02 }
            -
               depth: 6
               value: 0.
               norm_class_idx: 0
               splits:
                  - { var:0, quality:6.8751640625000000e+03,
                      le:3.0346838757395744e-02 }
            -
               depth: 7
               value: 0.
               norm_class_idx: 0
               splits:
                  - { var:4, quality:7.2476391601562500e+03,
                      le:6.7254945635795593e-02 }
            -
               depth: 8
               value: 0.
               norm_class_idx: 0
            -
               depth: 8
               value: 1.
               norm_class_idx: 1
            -
               depth: 7
               value: 0.
               norm_class_idx: 0
               splits:
                  - { var:8, quality:5.8605377197265625e+02,
                      le:1.0096347332000732e-01 }
            -
               depth: 8
               value: 1.
               norm_class_idx: 1
            -
               depth: 8
               value: 0.
               norm_class_idx: 0
            -
               depth: 6
               value: 0.
               norm_class_idx: 0
               splits:
                  - { var:5, quality:1.1403048828125000e+04,
                      le:1.2296084314584732e-03 }
            -
               depth: 7
               value: 0.
               norm_class_idx: 0
               splits:
                  - { var:11, quality:1.1412293945312500e+04,
                      le:6.2124552205204964e-03 }
            -
               depth: 8
               value: 1.
               norm_class_idx: 1
            -
               depth: 8
               value: 0.
               norm_class_idx: 0
            -
               depth: 7
               value: 1.
               norm_class_idx: 1
               splits:
                  - { var:9, quality:5.4200000762939453e+01,
                      le:2.0824546813964844e+00 }
            -
               depth: 8
               value: 0.
               norm_class_idx: 0
            -
               depth: 8
               value: 1.
               norm_class_idx: 1
            -
               depth: 5
               value: 1.
               norm_class_idx: 1
               splits:
                  - { var:3, quality:4.4651821899414062e+02,
                      le:3.2813832163810730e-02 }
            -
               depth: 6
               value: 1.
               norm_class_idx: 1
               splits:
                  - { var:12, quality:2.3633332824707031e+02,
                      le:3.0242166519165039e+00 }
            -
               depth: 7
               value: 1.
               norm_class_idx: 1
            -
               depth: 7
               value: 1.
               norm_class_idx: 1
               splits:
                  - { var:13, quality:2.2222221374511719e+01,
                      le:1.4242157936096191e+00 }
            -
               depth: 8
               value: 0.
               norm_class_idx: 0
            -
               depth: 8
               value: 1.
               norm_class_idx: 1
            -
               depth: 6
               value: 0.
               norm_class_idx: 0
            -
               depth: 4
               value: 1.
               norm_class_idx: 1
               splits:
                  - { var:1, quality:4.8490664672851562e+02,
                      le:2.6268269866704941e-02 }
            -
               depth: 5
               value: 1.
               norm_class_idx: 1
               splits:
                  - { var:10, quality:3.1476400756835938e+02,
                      le:4.1167598724365234e+01 }
            -
               depth: 6
               value: 1.
               norm_class_idx: 1
               splits:
                  - { var:7, quality:5.3873638153076172e+01,
                      le:2.0804591476917267e-02 }
            -
               depth: 7
               value: 0.
               norm_class_idx: 0
            -
               depth: 7
               value: 1.
               norm_class_idx: 1
               splits:
                  - { var:6, quality:4.3647060394287109e+01,
                      le:9.7200303571298718e-04 }
            -
               depth: 8
               value: 1.
               norm_class_idx: 1
            -
               depth: 8
               value: 0.
               norm_class_idx: 0
            -
               depth: 6
               value: 1.
               norm_class_idx: 1
               splits:
                  - { var:5, quality:2.7662963867187500e+02,
                      le:7.6653770520351827e-05 }
            -
               depth: 7
               value: 1.
               norm_class_idx: 1
               splits:
                  - { var:11, quality:2.5250000000000000e+01,
                      le:7.1381004527211189e-03 }
            -
               depth: 8
               value: 1.
               norm_class_idx: 1
            -
               depth: 8
               value: 0.
               norm_class_idx: 0
            -
               depth: 7
               value: 1.
               norm_class_idx: 1
            -
               depth: 5
               value: 0.
               norm_class_idx: 0
               splits:
                  - { var:11, quality:2.6720159912109375e+02,
                      le:8.0380886793136597e-03 }
            -
               depth: 6
               value: 0.
               norm_class_idx: 0
               splits:
                  - { var:12, quality:2.1179147338867188e+02,
                      le:2.3232622146606445e+00 }
            -
               depth: 7
               value: 1.
               norm_class_idx: 1
            -
               depth: 7
               value: 0.
               norm_class_idx: 0
               splits:
                  - { var:4, quality:1.9936547851562500e+02,
                      le:1.0373459756374359e-01 }
            -
               depth: 8
               value: 1.
               norm_class_idx: 1
            -
               depth: 8
               value: 0.
               norm_class_idx: 0
            -
               depth: 6
               value: 1.
               norm_class_idx: 1
            -
               depth: 2
               value: 1.
               norm_class_idx: 1
               splits:
                  - { var:10, quality:4.9508466796875000e+03,
                      le:3.5853084564208984e+01 }
            -
               depth: 3
               value: 1.
               norm_class_idx: 1
               splits:
                  - { var:11, quality:5.9875006103515625e+02,
                      le:4.9039125442504883e-03 }
            -
               depth: 4
               value: 0.
               norm_class_idx: 0
               splits:
                  - { var:13, quality:4.1672610473632812e+02,
                      le:1.1362277269363403e+00 }
            -
               depth: 5
               value: 1.
               norm_class_idx: 1
               splits:
                  - { var:13, quality:1.7830821228027344e+02,
                      le:1.0796941518783569e+00 }
            -
               depth: 6
               value: 1.
               norm_class_idx: 1
               splits:
                  - { var:6, quality:1.6547058105468750e+02,
                      le:4.6678879880346358e-04 }
            -
               depth: 7
               value: 1.
               norm_class_idx: 1
            -
               depth: 7
               value: 1.
               norm_class_idx: 1
            -
               depth: 6
               value: 1.
               norm_class_idx: 1
               splits:
                  - { var:9, quality:23., le:2.6878285408020020e+00 }
            -
               depth: 7
               value: 1.
               norm_class_idx: 1
            -
               depth: 7
               value: 0.
               norm_class_idx: 0
            -
               depth: 5
               value: 0.
               norm_class_idx: 0
               splits:
                  - { var:1, quality:2.4725650024414062e+02,
                      le:2.7271909639239311e-02 }
            -
               depth: 6
               value: 1.
               norm_class_idx: 1
            -
               depth: 6
               value: 0.
               norm_class_idx: 0
               splits:
                  - { var:11, quality:2.4975187683105469e+02,
                      le:2.8814664110541344e-03 }
            -
               depth: 7
               value: 1.
               norm_class_idx: 1
            -
               depth: 7
               value: 0.
               norm_class_idx: 0
               splits:
                  - { var:4, quality:2.5237261962890625e+02,
                      le:1.0323601961135864e-01 }
            -
               depth: 8
               value: 1.
               norm_class_idx: 1
            -
               depth: 8
               value: 0.
               norm_class_idx: 0
            -
               depth: 4
               value: 1.
               norm_class_idx: 1
               splits:
                  - { var:0, quality:3.8871176147460938e+02,
                      le:4.6552579849958420e-02 }
            -
               depth: 5
               value: 1.
               norm_class_idx: 1
               splits:
                  - { var:12, quality:3.6068991088867188e+02,
                      le:2.2948708534240723e+00 }
            -
               depth: 6
               value: 1.
               norm_class_idx: 1
               splits:
                  - { var:10, quality:3.4815383911132812e+02,
                      le:1.5590370178222656e+01 }
            -
               depth: 7
               value: 1.
               norm_class_idx: 1
            -
               depth: 7
               value: 1.
               norm_class_idx: 1
            -
               depth: 6
               value: 1.
               norm_class_idx: 1
            -
               depth: 5
               value: 0.
               norm_class_idx: 0
               splits:
                  - { var:13, quality:59., le:1.2033905982971191e+00 }
            -
               depth: 6
               value: 1.
               norm_class_idx: 1
            -
               depth: 6
               value: 0.
               norm_class_idx: 0
            -
               depth: 3
               value: 1.
               norm_class_idx: 1
               splits:
                  - { var:5, quality:4.4879467773437500e+03,
                      le:9.3855778686702251e-05 }
            -
               depth: 4
               value: 0.
               norm_class_idx: 0
               splits:
                  - { var:0, quality:26., le:2.9837246984243393e-02 }
            -
               depth: 5
               value: 1.
               norm_class_idx: 1
            -
               depth: 5
               value: 0.
               norm_class_idx: 0
            -
               depth: 4
               value: 1.
               norm_class_idx: 1
               splits:
                  - { var:12, quality:4.4749936523437500e+03,
                      le:2.9161112308502197e+00 }
            -
               depth: 5
               value: 1.
               norm_class_idx: 1
               splits:
                  - { var:0, quality:4.3880600585937500e+03,
                      le:4.6851627528667450e-02 }
            -
               depth: 6
               value: 1.
               norm_class_idx: 1
               splits:
                  - { var:8, quality:4.2490126953125000e+03,
                      le:1.4455811679363251e-01 }
            -
               depth: 7
               value: 1.
               norm_class_idx: 1
               splits:
                  - { var:8, quality:1.4170056152343750e+03,
                      le:1.4454779028892517e-01 }
            -
               depth: 8
               value: 1.
               norm_class_idx: 1
            -
               depth: 8
               value: 0.
               norm_class_idx: 0
            -
               depth: 7
               value: 1.
               norm_class_idx: 1
            -
               depth: 6
               value: 1.
               norm_class_idx: 1
               splits:
                  - { var:0, quality:143., le:4.6862330287694931e-02 }
            -
               depth: 7
               value: 0.
               norm_class_idx: 0
            -
               depth: 7
               value: 1.
               norm_class_idx: 1
            -
               depth: 5
               value: 1.
               norm_class_idx: 1
               splits:
                  - { var:10, quality:113., le:4.3418540954589844e+01 }
            -
               depth: 6
               value: 0.
               norm_class_idx: 0
            -
               depth: 6
               value: 1.
               norm_class_idx: 1
            -
               depth: 1
               value: 0.
               norm_class_idx: 0
               splits:
                  - { var:0, quality:4.1192507812500000e+04,
                      le:8.6059175431728363e-02 }
            -
               depth: 2
               value: 0.
               norm_class_idx: 0
               splits:
                  - { var:13, quality:1.1441014648437500e+04,
                      le:9.4260853528976440e-01 }
            -
               depth: 3
               value: 1.
               norm_class_idx: 1
               splits:
                  - { var:13, quality:8.2193878173828125e+02,
                      le:9.1558492183685303e-01 }
            -
               depth: 4
               value: 1.
               norm_class_idx: 1
            -
               depth: 4
               value: 1.
               norm_class_idx: 1
               splits:
                  - { var:4, quality:4.5234451293945312e+01,
                      le:2.6796072721481323e-01 }
            -
               depth: 5
               value: 1.
               norm_class_idx: 1
               splits:
                  - { var:4, quality:38., le:1.2282915413379669e-01 }
            -
               depth: 6
               value: 0.
               norm_class_idx: 0
            -
               depth: 6
               value: 1.
               norm_class_idx: 1
            -
               depth: 5
               value: 0.
               norm_class_idx: 0
            -
               depth: 3
               value: 0.
               norm_class_idx: 0
               splits:
                  - { var:8, quality:1.0684542968750000e+04,
                      le:2.3780578374862671e-01 }
            -
               depth: 4
               value: 0.
               norm_class_idx: 0
               splits:
                  - { var:8, quality:1.0600692382812500e+04,
                      le:1.5631656348705292e-01 }
            -
               depth: 5
               value: 1.
               norm_class_idx: 1
               splits:
                  - { var:13, quality:2.0380952835083008e+01,
                      le:1.6041119098663330e+00 }
            -
               depth: 6
               value: 1.
               norm_class_idx: 1
               splits:
                  - { var:0, quality:1.9666666030883789e+01,
                      le:5.1900677382946014e-02 }
            -
               depth: 7
               value: 1.
               norm_class_idx: 1
            -
               depth: 7
               value: 0.
               norm_class_idx: 0
            -
               depth: 6
               value: 0.
               norm_class_idx: 0
            -
               depth: 5
               value: 0.
               norm_class_idx: 0
               splits:
                  - { var:10, quality:1.0620363281250000e+04,
                      le:4.5899253845214844e+01 }
            -
               depth: 6
               value: 0.
               norm_class_idx: 0
               splits:
                  - { var:6, quality:1.0624077148437500e+04,
                      le:5.1635429263114929e-03 }
            -
               depth: 7
               value: 0.
               norm_class_idx: 0
               splits:
                  - { var:1, quality:1.0621134765625000e+04,
                      le:5.6344799697399139e-02 }
            -
               depth: 8
               value: 0.
               norm_class_idx: 0
            -
               depth: 8
               value: 1.
               norm_class_idx: 1
            -
               depth: 7
               value: 1.
               norm_class_idx: 1
            -
               depth: 6
               value: 1.
               norm_class_idx: 1
               splits:
                  - { var:1, quality:2.1763635635375977e+01,
                      le:4.6370625495910645e-02 }
            -
               depth: 7
               value: 1.
               norm_class_idx: 1
               splits:
                  - { var:13, quality:1.9600000381469727e+01,
                      le:1.1909618377685547e+00 }
            -
               depth: 8
               value: 1.
               norm_class_idx: 1
            -
               depth: 8
               value: 1.
               norm_class_idx: 1
            -
               depth: 7
               value: 0.
               norm_class_idx: 0
            -
               depth: 4
               value: 0.
               norm_class_idx: 0
               splits:
                  - { var:5, quality:1.4781474304199219e+02,
                      le:1.3712015934288502e-03 }
            -
               depth: 5
               value: 1.
               norm_class_idx: 1
               splits:
                  - { var:8, quality:4.5544445037841797e+01,
                      le:2.4114851653575897e-01 }
            -
               depth: 6
               value: 0.
               norm_class_idx: 0
            -
               depth: 6
               value: 1.
               norm_class_idx: 1
               splits:
                  - { var:3, quality:45., le:3.4407969564199448e-02 }
            -
               depth: 7
               value: 1.
               norm_class_idx: 1
            -
               depth: 7
               value: 0.
               norm_class_idx: 0
            -
               depth: 5
               value: 0.
               norm_class_idx: 0
               splits:
                  - { var:10, quality:1.3028338623046875e+02,
                      le:3.5550025939941406e+01 }
            -
               depth: 6
               value: 0.
               norm_class_idx: 0
               splits:
                  - { var:4, quality:1.2419597625732422e+02,
                      le:2.3812299966812134e-01 }
            -
               depth: 7
               value: 1.
               norm_class_idx: 1
            -
               depth: 7
               value: 0.
               norm_class_idx: 0
               splits:
                  - { var:11, quality:1.1714875793457031e+02,
                      le:5.8627910912036896e-03 }
            -
               depth: 8
               value: 1.
               norm_class_idx: 1
            -
               depth: 8
               value: 0.
               norm_class_idx: 0
            -
               depth: 6
               value: 1.
               norm_class_idx: 1
               splits:
                  - { var:13, quality:2.1250000000000000e+01,
                      le:1.0080044269561768e+00 }
            -
               depth: 7
               value: 1.
               norm_class_idx: 1
            -
               depth: 7
               value: 1.
               norm_class_idx: 1
            -
               depth: 2
               value: 0.
               norm_class_idx: 0
               splits:
                  - { var:7, quality:3.1218287109375000e+04,
                      le:1.3353651762008667e-01 }
            -
               depth: 3
               value: 1.
               norm_class_idx: 1
            -
               depth: 3
               value: 0.
               norm_class_idx: 0
               splits:
                  - { var:10, quality:31216., le:4.8398193359375000e+01 }
            -
               depth: 4
               value: 0.
               norm_class_idx: 0
               splits:
                  - { var:8, quality:31217., le:2.9264762997627258e-01 }
            -
               depth: 5
               value: 1.
               norm_class_idx: 1
            -
               depth: 5
               value: 0.
               norm_class_idx: 0
            -
               depth: 4
               value: 1.
               norm_class_idx: 1
      -
         nodes:
            -
               depth: 0
               value: 0.
               norm_class_idx: 0
               splits:
                  - { var:10, quality:6.4028476562500000e+04,
                      le:3.8837875366210938e+01 }
            -
               depth: 1
               value: 0.
               norm_class_idx: 0
               splits:
                  - { var:0, quality:5.9688449218750000e+04,
                      le:3.2984878867864609e-02 }
            -
               depth: 2
               value: 0.
               norm_class_idx: 0
               splits:
                  - { var:3, quality:7.9982426757812500e+03,
                      le:3.3548651263117790e-03 }
            -
               depth: 3
               value: 0.
               norm_class_idx: 0
               splits:
                  - { var:1, quality:7.2191406250000000e+03,
                      le:2.2758200764656067e-02 }
            -
               depth: 4
               value: 0.
               norm_class_idx: 0
               splits:
                  - { var:4, quality:7.3521357421875000e+03,
                      le:6.7652314901351929e-02 }
            -
               depth: 5
               value: 0.
               norm_class_idx: 0
               splits:
                  - { var:12, quality:7.0920371093750000e+03,
                      le:1.9502241611480713e+00 }
            -
               depth: 6
               value: 0.
               norm_class_idx: 0
               splits:
                  - { var:11, quality:7.1220390625000000e+03,
                      le:5.2542807534337044e-03 }
            -
               depth: 7
               value: 1.
               norm_class_idx: 1
               splits:
                  - { var:9, quality:8.3727272033691406e+01,
                      le:1.9353424310684204e+00 }
            -
               depth: 8
               value: 1.
               norm_class_idx: 1
            -
               depth: 8
               value: 1.
               norm_class_idx: 1
            -
               depth: 7
               value: 0.
               norm_class_idx: 0
               splits:
                  - { var:2, quality:7.1134218750000000e+03,
                      le:4.4276514090597630e-03 }
            -
               depth: 8
               value: 0.
               norm_class_idx: 0
            -
               depth: 8
               value: 1.
               norm_class_idx: 1
            -
               depth: 6
               value: 1.
               norm_class_idx: 1
               splits:
                  - { var:12, quality:1.2256250000000000e+02,
                      le:1.9932408332824707e+00 }
            -
               depth: 7
               value: 1.
               norm_class_idx: 1
               splits:
                  - { var:13, quality:2.7125000000000000e+01,
                      le:1.8012001514434814e+00 }
            -
               depth: 8
               value: 1.
               norm_class_idx: 1
            -
               depth: 8
               value: 0.
               norm_class_idx: 0
            -
               depth: 7
               value: 1.
               norm_class_idx: 1
            -
               depth: 5
               value: 1.
               norm_class_idx: 1
               splits:
                  - { var:10, quality:4.4990139770507812e+02,
                      le:1.5846729278564453e+01 }
            -
               depth: 6
               value: 1.
               norm_class_idx: 1
               splits:
                  - { var:12, quality:1.3690393066406250e+02,
                      le:1.5185170173645020e+00 }
            -
               depth: 7
               value: 0.
               norm_class_idx: 0
            -
               depth: 7
               value: 1.
               norm_class_idx: 1
               splits:
                  - { var:10, quality:133., le:1.5776257514953613e+01 }
            -
               depth: 8
               value: 1.
               norm_class_idx: 1
            -
               depth: 8
               value: 0.
               norm_class_idx: 0
            -
               depth: 6
               value: 1.
               norm_class_idx: 1
            -
               depth: 4
               value: 1.
               norm_class_idx: 1
               splits:
                  - { var:4, quality:8.7095532226562500e+02,
                      le:1.0463444888591766e-01 }
            -
               depth: 5
               value: 1.
               norm_class_idx: 1
               splits:
                  - { var:12, quality:7.0940966796875000e+02,
                      le:8.8068175315856934e-01 }
            -
               depth: 6
               value: 0.
               norm_class_idx: 0
            -
               depth: 6
               value: 1.
               norm_class_idx: 1
               splits:
                  - { var:11, quality:6.8084832763671875e+02,
                      le:1.0343855246901512e-02 }
            -
               depth: 7
               value: 1.
               norm_class_idx: 1
               splits:
                  - { var:1, quality:5.9061535644531250e+02,
                      le:2.2889904677867889e-02 }
            -
               depth: 8
               value: 1.
               norm_class_idx: 1
            -
               depth: 8
               value: 1.
               norm_class_idx: 1
            -
               depth: 7
               value: 1.
               norm_class_idx: 1
               splits:
                  - { var:4, quality:1.0233333587646484e+02,
                      le:7.1467392146587372e-02 }
            -
               depth: 8
               value: 0.
               norm_class_idx: 0
            -
               depth: 8
               value: 1.
               norm_class_idx: 1
            -
               depth: 5
               value: 0.
               norm_class_idx: 0
               splits:
                  - { var:12, quality:225., le:2.2789995670318604e+00 }
            -
               depth: 6
               value: 1.
               norm_class_idx: 1
            -
               depth: 6
               value: 0.
               norm_class_idx: 0
            -
               depth: 3
               value: 1.
               norm_class_idx: 1
               splits:
                  - { var:11, quality:1.3845714111328125e+03,
                      le:1.0084683075547218e-02 }
            -
               depth: 4
               value: 1.
               norm_class_idx: 1
            -
               depth: 4
               value: 1.
               norm_class_idx: 1
            -
               depth: 2
               value: 0.
               norm_class_idx: 0
               splits:
                  - { var:1, quality:5.3455304687500000e+04,
                      le:3.8957335054874420e-02 }
            -
               depth: 3
               value: 0.
               norm_class_idx: 0
               splits:
                  - { var:4, quality:1.2094444335937500e+04,
                      le:1.2020654976367950e-01 }
            -
               depth: 4
               value: 0.
               norm_class_idx: 0
               splits:
                  - { var:9, quality:1.1968597656250000e+04,
                      le:2.6566886901855469e+00 }
            -
               depth: 5
               value: 0.
               norm_class_idx: 0
               splits:
                  - { var:13, quality:1.1876548828125000e+04,
                      le:1.2207705974578857e+00 }
            -
               depth: 6
               value: 0.
               norm_class_idx: 0
               splits:
                  - { var:4, quality:1.0642884521484375e+03,
                      le:8.7337195873260498e-02 }
            -
               depth: 7
               value: 0.
               norm_class_idx: 0
               splits:
                  - { var:5, quality:8.1715515136718750e+02,
                      le:1.2499478179961443e-03 }
            -
               depth: 8
               value: 0.
               norm_class_idx: 0
            -
               depth: 8
               value: 1.
               norm_class_idx: 1
            -
               depth: 7
               value: 1.
               norm_class_idx: 1
               splits:
                  - { var:12, quality:4.8968994140625000e+02,
                      le:2.2984783649444580e+00 }
            -
               depth: 8
               value: 1.
               norm_class_idx: 1
            -
               depth: 8
               value: 0.
               norm_class_idx: 0
            -
               depth: 6
               value: 0.
               norm_class_idx: 0
               splits:
                  - { var:11, quality:1.1122489257812500e+04,
                      le:1.5669204294681549e-02 }
            -
               depth: 7
               value: 0.
               norm_class_idx: 0
               splits:
                  - { var:12, quality:1.1026924804687500e+04,
                      le:1.9353880882263184e+00 }
            -
               depth: 8
               value: 0.
               norm_class_idx: 0
            -
               depth: 8
               value: 0.
               norm_class_idx: 0
            -
               depth: 7
               value: 1.
               norm_class_idx: 1
               splits:
                  - { var:12, quality:1.6272856140136719e+02,
                      le:1.7017097473144531e+00 }
            -
               depth: 8
               value: 0.
               norm_class_idx: 0
            -
               depth: 8
               value: 1.
               norm_class_idx: 1
            -
               depth: 5
               value: 1.
               norm_class_idx: 1
               splits:
                  - { var:5, quality:2.4513450622558594e+02,
                      le:2.8620866942219436e-04 }
            -
               depth: 6
               value: 0.
               norm_class_idx: 0
               splits:
                  - { var:12, quality:40., le:2.5630869865417480e+00 }
            -
               depth: 7
               value: 0.
               norm_class_idx: 0
            -
               depth: 7
               value: 1.
               norm_class_idx: 1
            -
               depth: 6
               value: 1.
               norm_class_idx: 1
               splits:
                  - { var:5, quality:2.0789999389648438e+02,
                      le:4.2679088073782623e-04 }
            -
               depth: 7
               value: 1.
               norm_class_idx: 1
            -
               depth: 7
               value: 1.
               norm_class_idx: 1
            -
               depth: 4
               value: 1.
               norm_class_idx: 1
               splits:
                  - { var:13, quality:4.8277117919921875e+02,
                      le:1.3624184131622314e+00 }
            -
               depth: 5
               value: 1.
               norm_class_idx: 1
               splits:
                  - { var:12, quality:378., le:2.9258146286010742e+00 }
            -
               depth: 6
               value: 1.
               norm_class_idx: 1
            -
               depth: 6
               value: 0.
               norm_class_idx: 0
            -
               depth: 5
               value: 1.
               norm_class_idx: 1
               splits:
                  - { var:2, quality:1.9099237060546875e+02,
                      le:4.3729979544878006e-02 }
            -
               depth: 6
               value: 1.
               norm_class_idx: 1
               splits:
                  - { var:1, quality:1.1305128479003906e+02,
                      le:3.5086721181869507e-02 }
            -
               depth: 7
               value: 1.
               norm_class_idx: 1
            -
               depth: 7
               value: 1.
               norm_class_idx: 1
               splits:
                  - { var:0, quality:2.7615385055541992e+01,
                      le:4.3892849236726761e-02 }
            -
               depth: 8
               value: 0.
               norm_class_idx: 0
            -
               depth: 8
               value: 1.
               norm_class_idx: 1
            -
               depth: 6
               value: 0.
               norm_class_idx: 0
            -
               depth: 3
               value: 0.
               norm_class_idx: 0
               splits:
                  - { var:7, quality:4.2035746093750000e+04,
                      le:1.1811455339193344e-01 }
            -
               depth: 4
               value: 0.
               norm_class_idx: 0
               splits:
                  - { var:8, quality:4.4908847656250000e+03,
                      le:2.1107625961303711e-01 }
            -
               depth: 5
               value: 0.
               norm_class_idx: 0
               splits:
                  - { var:5, quality:4.5208818359375000e+03,
                      le:1.7587234033271670e-03 }
            -
               depth: 6
               value: 0.
               norm_class_idx: 0
               splits:
                  - { var:5, quality:4.4824721679687500e+03,
                      le:2.0078165107406676e-04 }
            -
               depth: 7
               value: 1.
               norm_class_idx: 1
            -
               depth: 7
               value: 0.
               norm_class_idx: 0
               splits:
                  - { var:8, quality:4.4964458007812500e+03,
                      le:1.5546414256095886e-01 }
            -
               depth: 8
               value: 1.
               norm_class_idx: 1
            -
               depth: 8
               value: 0.
               norm_class_idx: 0
            -
               depth: 6
               value: 1.
               norm_class_idx: 1
               splits:
                  - { var:9, quality:75., le:2.4922430515289307e+00 }
            -
               depth: 7
               value: 0.
               norm_class_idx: 0
            -
               depth: 7
               value: 1.
               norm_class_idx: 1
            -
               depth: 5
               value: 1.
               norm_class_idx: 1
               splits:
                  - { var:12, quality:8.6015686035156250e+01,
                      le:2.7917838096618652e+00 }
            -
               depth: 6
               value: 1.
               norm_class_idx: 1
               splits:
                  - { var:13, quality:6.2285713195800781e+01,
                      le:1.3638478517532349e+00 }
            -
               depth: 7
               value: 1.
               norm_class_idx: 1
               splits:
                  - { var:3, quality:5.9129032135009766e+01,
                      le:4.8254285007715225e-02 }
            -
               depth: 8
               value: 1.
               norm_class_idx: 1
            -
               depth: 8
               value: 0.
               norm_class_idx: 0
            -
               depth: 7
               value: 0.
               norm_class_idx: 0
            -
               depth: 6
               value: 0.
               norm_class_idx: 0
               splits:
                  - { var:7, quality:4.6782608032226562e+01,
                      le:7.9917304217815399e-02 }
            -
               depth: 7
               value: 1.
               norm_class_idx: 1
            -
               depth: 7
               value: 0.
               norm_class_idx: 0
               splits:
                  - { var:5, quality:4.0439025878906250e+01,
                      le:1.9995707552880049e-03 }
            -
               depth: 8
               value: 0.
               norm_class_idx: 0
            -
               depth: 8
               value: 1.
               norm_class_idx: 1
            -
               depth: 4
               value: 0.
               norm_class_idx: 0
               splits:
                  - { var:1, quality:3.7664871093750000e+04,
                      le:4.1710719466209412e-02 }
            -
               depth: 5
               value: 1.
               norm_class_idx: 1
               splits:
                  - { var:6, quality:2.1657142639160156e+01,
                      le:3.6429948522709310e-04 }
            -
               depth: 6
               value: 1.
               norm_class_idx: 1
               splits:
                  - { var:13, quality:1.8600000381469727e+01,
                      le:1.2520191669464111e+00 }
            -
               depth: 7
               value: 1.
               norm_class_idx: 1
            -
               depth: 7
               value: 0.
               norm_class_idx: 0
            -
               depth: 6
               value: 0.
               norm_class_idx: 0
            -
               depth: 5
               value: 0.
               norm_class_idx: 0
               splits:
                  - { var:4, quality:3.7651398437500000e+04,
                      le:1.5096709132194519e-01 }
            -
               depth: 6
               value: 1.
               norm_class_idx: 1
            -
               depth: 6
               value: 0.
               norm_class_idx: 0
               splits:
                  - { var:11, quality:3.7680109375000000e+04,
                      le:1.2704293243587017e-02 }
            -
               depth: 7
               value: 0.
               norm_class_idx: 0
               splits:
                  - { var:11, quality:3.7667808593750000e+04,
                      le:3.2321470789611340e-03 }
            -
               depth: 8
               value: 0.
               norm_class_idx: 0
            -
               depth: 8
               value: 0.
               norm_class_idx: 0
            -
               depth: 7
               value: 1.
               norm_class_idx: 1
               splits:
                  - { var:3, quality:21., le:3.0743906274437904e-02 }
            -
               depth: 8
               value: 1.
               norm_class_idx: 1
            -
               depth: 8
               value: 0.
               norm_class_idx: 0
            -
               depth: 1
               value: 1.
               norm_class_idx: 1
               splits:
                  - { var:9, quality:5.6841401367187500e+03,
                      le:2.5943074226379395e+00 }
            -
               depth: 2
               value: 1.
               norm_class_idx: 1
               splits:
                  - { var:1, quality:6.6838092041015625e+02,
                      le:2.6163624599575996e-02 }
            -
               depth: 3
               value: 1.
               norm_class_idx: 1
               splits:
                  - { var:4, quality:5.1061886596679688e+02,
                      le:1.0666127502918243e-01 }
            -
               depth: 4
               value: 1.
               norm_class_idx: 1
               splits:
                  - { var:1, quality:5.0729800415039062e+02,
                      le:1.5363428741693497e-02 }
            -
               depth: 5
               value: 1.
               norm_class_idx: 1
               splits:
                  - { var:0, quality:1.3524243164062500e+02,
                      le:1.8203195184469223e-02 }
            -
               depth: 6
               value: 1.
               norm_class_idx: 1
            -
               depth: 6
               value: 0.
               norm_class_idx: 0
               splits:
                  - { var:4, quality:33., le:4.9368776381015778e-02 }
            -
               depth: 7
               value: 0.
               norm_class_idx: 0
            -
               depth: 7
               value: 1.
               norm_class_idx: 1
            -
               depth: 5
               value: 1.
               norm_class_idx: 1
            -
               depth: 4
               value: 0.
               norm_class_idx: 0
            -
               depth: 3
               value: 0.
               norm_class_idx: 0
               splits:
                  - { var:1, quality:2.7581314086914062e+02,
                      le:2.6945961639285088e-02 }
            -
               depth: 4
               value: 0.
               norm_class_idx: 0
               splits:
                  - { var:11, quality:1.9450776672363281e+02,
                      le:7.9966727644205093e-03 }
            -
               depth: 5
               value: 0.
               norm_class_idx: 0
               splits:
                  - { var:11, quality:1.9101069641113281e+02,
                      le:6.9355498999357224e-03 }
            -
               depth: 6
               value: 1.
               norm_class_idx: 1
            -
               depth: 6
               value: 0.
               norm_class_idx: 0
               splits:
                  - { var:1, quality:1.8566667175292969e+02,
                      le:2.6281662285327911e-02 }
            -
               depth: 7
               value: 0.
               norm_class_idx: 0
            -
               depth: 7
               value: 0.
               norm_class_idx: 0
            -
               depth: 5
               value: 1.
               norm_class_idx: 1
            -
               depth: 4
               value: 1.
               norm_class_idx: 1
               splits:
                  - { var:5, quality:1.1101802062988281e+02,
                      le:5.8608206018107012e-05 }
            -
               depth: 5
               value: 0.
               norm_class_idx: 0
            -
               depth: 5
               value: 1.
               norm_class_idx: 1
               splits:
                  - { var:5, quality:1.0940000152587891e+02,
                      le:8.5873143689241260e-05 }
            -
               depth: 6
               value: 1.
               norm_class_idx: 1
            -
               depth: 6
               value: 1.
               norm_class_idx: 1
            -
               depth: 2
               value: 1.
               norm_class_idx: 1
               splits:
                  - { var:12, quality:5.2004648437500000e+03,
                      le:2.8663887977600098e+00 }
            -
               depth: 3
               value: 1.
               norm_class_idx: 1
               splits:
                  - { var:9, quality:5.0311542968750000e+03,
                      le:2.6746368408203125e+00 }
            -
               depth: 4
               value: 1.
               norm_class_idx: 1
               splits:
                  - { var:12, quality:3.3076443481445312e+02,
                      le:2.4135165214538574e+00 }
            -
               depth: 5
               value: 1.
               norm_class_idx: 1
               splits:
                  - { var:7, quality:2.8650698852539062e+02,
                      le:1.1650302261114120e-01 }
            -
               depth: 6
               value: 1.
               norm_class_idx: 1
               splits:
                  - { var:5, quality:286., le:7.6355783676262945e-05 }
            -
               depth: 7
               value: 0.
               norm_class_idx: 0
            -
               depth: 7
               value: 1.
               norm_class_idx: 1
            -
               depth: 6
               value: 1.
               norm_class_idx: 1
            -
               depth: 5
               value: 1.
               norm_class_idx: 1
               splits:
                  - { var:10, quality:5.9657142639160156e+01,
                      le:4.8984092712402344e+01 }
            -
               depth: 6
               value: 0.
               norm_class_idx: 0
               splits:
                  - { var:0, quality:2.9719999313354492e+01,
                      le:3.7310920655727386e-02 }
            -
               depth: 7
               value: 0.
               norm_class_idx: 0
               splits:
                  - { var:4, quality:25., le:1.0212488472461700e-01 }
            -
               depth: 8
               value: 1.
               norm_class_idx: 1
            -
               depth: 8
               value: 0.
               norm_class_idx: 0
            -
               depth: 7
               value: 1.
               norm_class_idx: 1
            -
               depth: 6
               value: 1.
               norm_class_idx: 1
            -
               depth: 4
               value: 1.
               norm_class_idx: 1
               splits:
                  - { var:4, quality:4.7110039062500000e+03,
                      le:2.8875535726547241e-01 }
            -
               depth: 5
               value: 1.
               norm_class_idx: 1
               splits:
                  - { var:5, quality:4.7107202148437500e+03,
                      le:2.1039388957433403e-04 }
            -
               depth: 6
               value: 1.
               norm_class_idx: 1
               splits:
                  - { var:5, quality:2.3086956024169922e+01,
                      le:2.0328839309513569e-04 }
            -
               depth: 7
               value: 1.
               norm_class_idx: 1
               splits:
                  - { var:0, quality:2.1666666030883789e+01,
                      le:3.4732289612293243e-02 }
            -
               depth: 8
               value: 1.
               norm_class_idx: 1
            -
               depth: 8
               value: 1.
               norm_class_idx: 1
            -
               depth: 7
               value: 0.
               norm_class_idx: 0
            -
               depth: 6
               value: 1.
               norm_class_idx: 1
            -
               depth: 5
               value: 0.
               norm_class_idx: 0
            -
               depth: 3
               value: 1.
               norm_class_idx: 1
               splits:
                  - { var:10, quality:3.0907339477539062e+02,
                      le:4.6866943359375000e+01 }
            -
               depth: 4
               value: 0.
               norm_class_idx: 0
               splits:
                  - { var:0, quality:109., le:7.2625830769538879e-02 }
            -
               depth: 5
               value: 0.
               norm_class_idx: 0
            -
               depth: 5
               value: 1.
               norm_class_idx: 1
            -
               depth: 4
               value: 1.
               norm_class_idx: 1
      -
         nodes:
            -
               depth: 0
               value: 0.
               norm_class_idx: 0
               splits:
                  - { var:10, quality:6.3943753906250000e+04,
                      le:3.8661983489990234e+01 }
            -
               depth: 1
               value: 0.
               norm_class_idx: 0
               splits:
                  - { var:0, quality:5.9872828125000000e+04,
                      le:3.3022113144397736e-02 }
            -
               depth: 2
               value: 0.
               norm_class_idx: 0
               splits:
                  - { var:11, quality:8.3321484375000000e+03,
                      le:5.2680000662803650e-03 }
            -
               depth: 3
               value: 1.
               norm_class_idx: 1
               splits:
                  - { var:9, quality:1.6492500000000000e+03,
                      le:1.9691822528839111e+00 }
            -
               depth: 4
               value: 1.
               norm_class_idx: 1
               splits:
                  - { var:0, quality:3.0285715103149414e+01,
                      le:1.7846364527940750e-02 }
            -
               depth: 5
               value: 1.
               norm_class_idx: 1
            -
               depth: 5
               value: 0.
               norm_class_idx: 0
            -
               depth: 4
               value: 1.
               norm_class_idx: 1
            -
               depth: 3
               value: 0.
               norm_class_idx: 0
               splits:
                  - { var:4, quality:7.7817319335937500e+03,
                      le:6.6763006150722504e-02 }
            -
               depth: 4
               value: 0.
               norm_class_idx: 0
               splits:
                  - { var:12, quality:7.0892431640625000e+03,
                      le:1.9560055732727051e+00 }
            -
               depth: 5
               value: 0.
               norm_class_idx: 0
               splits:
                  - { var:5, quality:7.0684121093750000e+03,
                      le:1.2705322660622187e-05 }
            -
               depth: 6
               value: 1.
               norm_class_idx: 1
               splits:
                  - { var:8, quality:7.0470588684082031e+01,
                      le:4.9442511051893234e-02 }
            -
               depth: 7
               value: 0.
               norm_class_idx: 0
            -
               depth: 7
               value: 1.
               norm_class_idx: 1
            -
               depth: 6
               value: 0.
               norm_class_idx: 0
               splits:
                  - { var:0, quality:7.0737939453125000e+03,
                      le:1.7821103334426880e-02 }
            -
               depth: 7
               value: 1.
               norm_class_idx: 1
            -
               depth: 7
               value: 0.
               norm_class_idx: 0
               splits:
                  - { var:8, quality:7.0655122070312500e+03,
                      le:6.5881937742233276e-02 }
            -
               depth: 8
               value: 0.
               norm_class_idx: 0
            -
               depth: 8
               value: 0.
               norm_class_idx: 0
            -
               depth: 5
               value: 1.
               norm_class_idx: 1
               splits:
                  - { var:0, quality:1.1856250000000000e+02,
                      le:1.8822722136974335e-02 }
            -
               depth: 6
               value: 0.
               norm_class_idx: 0
               splits:
                  - { var:6, quality:3.0100000381469727e+01,
                      le:7.2390321292914450e-05 }
            -
               depth: 7
               value: 1.
               norm_class_idx: 1
            -
               depth: 7
               value: 0.
               norm_class_idx: 0
            -
               depth: 6
               value: 1.
               norm_class_idx: 1
            -
               depth: 4
               value: 1.
               norm_class_idx: 1
               splits:
                  - { var:12, quality:1.1367591552734375e+03,
                      le:2.4102253913879395e+00 }
            -
               depth: 5
               value: 1.
               norm_class_idx: 1
               splits:
                  - { var:12, quality:9.2500158691406250e+02,
                      le:1.5702240467071533e+00 }
            -
               depth: 6
               value: 1.
               norm_class_idx: 1
               splits:
                  - { var:8, quality:2.1119212341308594e+02,
                      le:7.5260356068611145e-02 }
            -
               depth: 7
               value: 0.
               norm_class_idx: 0
            -
               depth: 7
               value: 1.
               norm_class_idx: 1
               splits:
                  - { var:4, quality:1.8614039611816406e+02,
                      le:7.0389732718467712e-02 }
            -
               depth: 8
               value: 1.
               norm_class_idx: 1
            -
               depth: 8
               value: 1.
               norm_class_idx: 1
            -
               depth: 6
               value: 1.
               norm_class_idx: 1
               splits:
                  - { var:4, quality:7.6341644287109375e+02,
                      le:6.7652314901351929e-02 }
            -
               depth: 7
               value: 1.
               norm_class_idx: 1
               splits:
                  - { var:4, quality:2.0529411315917969e+01,
                      le:6.7107260227203369e-02 }
            -
               depth: 8
               value: 1.
               norm_class_idx: 1
            -
               depth: 8
               value: 1.
               norm_class_idx: 1
            -
               depth: 7
               value: 1.
               norm_class_idx: 1
               splits:
                  - { var:4, quality:7.4650000000000000e+02,
                      le:1.0549432784318924e-01 }
            -
               depth: 8
               value: 1.
               norm_class_idx: 1
            -
               depth: 8
               value: 1.
               norm_class_idx: 1
            -
               depth: 5
               value: 0.
               norm_class_idx: 0
               splits:
                  - { var:0, quality:3.0389297485351562e+02,
                      le:3.2075069844722748e-02 }
            -
               depth: 6
               value: 1.
               norm_class_idx: 1
            -
               depth: 6
               value: 0.
               norm_class_idx: 0
               splits:
                  - { var:8, quality:2.5394264221191406e+02,
                      le:1.1327362805604935e-01 }
            -
               depth: 7
               value: 0.
               norm_class_idx: 0
               splits:
                  - { var:5, quality:2.5890908813476562e+02,
                      le:7.7278120443224907e-05 }
            -
               depth: 8
               value: 0.
               norm_class_idx: 0
            -
               depth: 8
               value: 1.
               norm_class_idx: 1
            -
               depth: 7
               value: 1.
               norm_class_idx: 1
            -
               depth: 2
               value: 0.
               norm_class_idx: 0
               splits:
                  - { var:12, quality:5.3644328125000000e+04,
                      le:1.8597060441970825e+00 }
            -
               depth: 3
               value: 0.
               norm_class_idx: 0
               splits:
                  - { var:10, quality:1.7035255126953125e+03,
                      le:2.5982231140136719e+01 }
            -
               depth: 4
               value: 0.
               norm_class_idx: 0
               splits:
                  - { var:11, quality:1.7067614746093750e+03,
                      le:1.8309712409973145e-02 }
            -
               depth: 5
               value: 0.
               norm_class_idx: 0
               splits:
                  - { var:9, quality:5.7983020019531250e+02,
                      le:2.1441788673400879e+00 }
            -
               depth: 6
               value: 0.
               norm_class_idx: 0
               splits:
                  - { var:3, quality:3.4385437011718750e+02,
                      le:3.9139445871114731e-03 }
            -
               depth: 7
               value: 0.
               norm_class_idx: 0
               splits:
                  - { var:0, quality:3.4493371582031250e+02,
                      le:3.4081082791090012e-02 }
            -
               depth: 8
               value: 1.
               norm_class_idx: 1
            -
               depth: 8
               value: 0.
               norm_class_idx: 0
            -
               depth: 7
               value: 1.
               norm_class_idx: 1
            -
               depth: 6
               value: 1.
               norm_class_idx: 1
               splits:
                  - { var:4, quality:3.9189440917968750e+02,
                      le:2.1968826651573181e-01 }
            -
               depth: 7
               value: 1.
               norm_class_idx: 1
               splits:
                  - { var:4, quality:3.1278515625000000e+02,
                      le:7.9289466142654419e-02 }
            -
               depth: 8
               value: 0.
               norm_class_idx: 0
            -
               depth: 8
               value: 1.
               norm_class_idx: 1
            -
               depth: 7
               value: 0.
               norm_class_idx: 0
            -
               depth: 5
               value: 0.
               norm_class_idx: 0
               splits:
                  - { var:9, quality:1.3080744628906250e+03,
                      le:2.4641861915588379e+00 }
            -
               depth: 6
               value: 0.
               norm_class_idx: 0
               splits:
                  - { var:6, quality:1.3060244140625000e+03,
                      le:2.2272692149272189e-05 }
            -
               depth: 7
               value: 0.
               norm_class_idx: 0
            -
               depth: 7
               value: 0.
               norm_class_idx: 0
               splits:
                  - { var:12, quality:1.3070061035156250e+03,
                      le:1.7926230430603027e+00 }
            -
               depth: 8
               value: 0.
               norm_class_idx: 0
            -
               depth: 8
               value: 1.
               norm_class_idx: 1
            -
               depth: 6
               value: 1.
               norm_class_idx: 1
            -
               depth: 4
               value: 1.
               norm_class_idx: 1
               splits:
                  - { var:11, quality:1.8872727966308594e+02,
                      le:1.9588802009820938e-02 }
            -
               depth: 5
               value: 1.
               norm_class_idx: 1
            -
               depth: 5
               value: 0.
               norm_class_idx: 0
            -
               depth: 3
               value: 0.
               norm_class_idx: 0
               splits:
                  - { var:11, quality:5.2333582031250000e+04,
                      le:1.6240488737821579e-02 }
            -
               depth: 4
               value: 0.
               norm_class_idx: 0
               splits:
                  - { var:0, quality:5.2308250000000000e+04,
                      le:4.8172846436500549e-02 }
            -
               depth: 5
               value: 0.
               norm_class_idx: 0
               splits:
                  - { var:4, quality:1.1008583984375000e+04,
                      le:1.2020877003669739e-01 }
            -
               depth: 6
               value: 0.
               norm_class_idx: 0
               splits:
                  - { var:13, quality:1.0930114257812500e+04,
                      le:1.1485712528228760e+00 }
            -
               depth: 7
               value: 1.
               norm_class_idx: 1
               splits:
                  - { var:6, quality:1.4349382019042969e+02,
                      le:1.9248009193688631e-03 }
            -
               depth: 8
               value: 1.
               norm_class_idx: 1
            -
               depth: 8
               value: 0.
               norm_class_idx: 0
            -
               depth: 7
               value: 0.
               norm_class_idx: 0
               splits:
                  - { var:1, quality:1.0816722656250000e+04,
                      le:2.6003118604421616e-02 }
            -
               depth: 8
               value: 1.
               norm_class_idx: 1
            -
               depth: 8
               value: 0.
               norm_class_idx: 0
            -
               depth: 6
               value: 1.
               norm_class_idx: 1
               splits:
                  - { var:0, quality:5.4259814453125000e+02,
                      le:4.6386830508708954e-02 }
            -
               depth: 7
               value: 1.
               norm_class_idx: 1
               splits:
                  - { var:13, quality:2.9660000610351562e+02,
                      le:1.3625655174255371e+00 }
            -
               depth: 8
               value: 1.
               norm_class_idx: 1
            -
               depth: 8
               value: 1.
               norm_class_idx: 1
            -
               depth: 7
               value: 0.
               norm_class_idx: 0
               splits:
                  - { var:13, quality:3.3054544067382812e+02,
                      le:1.2284448146820068e+00 }
            -
               depth: 8
               value: 1.
               norm_class_idx: 1
            -
               depth: 8
               value: 0.
               norm_class_idx: 0
            -
               depth: 5
               value: 0.
               norm_class_idx: 0
               splits:
                  - { var:10, quality:4.1634617187500000e+04,
                      le:3.3347427368164062e+01 }
            -
               depth: 6
               value: 0.
               norm_class_idx: 0
               splits:
                  - { var:1, quality:4.1106417968750000e+04,
                      le:3.8939021527767181e-02 }
            -
               depth: 7
               value: 0.
               norm_class_idx: 0
            -
               depth: 7
               value: 0.
               norm_class_idx: 0
               splits:
                  - { var:9, quality:4.1108191406250000e+04,
                      le:2.3165674209594727e+00 }
            -
               depth: 8
               value: 1.
               norm_class_idx: 1
            -
               depth: 8
               value: 0.
               norm_class_idx: 0
            -
               depth: 6
               value: 0.
               norm_class_idx: 0
               splits:
                  - { var:5, quality:5.8713031005859375e+02,
                      le:1.8644072115421295e-03 }
            -
               depth: 7
               value: 0.
               norm_class_idx: 0
               splits:
                  - { var:12, quality:5.8330499267578125e+02,
                      le:2.7686042785644531e+00 }
            -
               depth: 8
               value: 1.
               norm_class_idx: 1
            -
               depth: 8
               value: 0.
               norm_class_idx: 0
            -
               depth: 7
               value: 1.
               norm_class_idx: 1
            -
               depth: 4
               value: 1.
               norm_class_idx: 1
               splits:
                  - { var:0, quality:1.4131282043457031e+02,
                      le:4.8925317823886871e-02 }
            -
               depth: 5
               value: 1.
